4023 50
в -0.016602 0.015667 -0.012431 -0.0040801 0.0097496 0.002435 0.012331 0.00045851 0.019859 0.018693 -0.0029706 0.0061442 0.018479 0.014362 -0.0082453 -0.0033923 0.00058111 0.011586 0.0017569 -0.016257 -0.0026896 0.01384 0.010928 -0.012334 0.011174 -0.012753 0.0032184 -0.0074662 -0.0035183 0.019678 -0.013422 -0.006583 -0.016947 -0.013027 -0.018527 -0.0013185 0.0069587 -0.01732 -0.0044289 -0.013376 0.019624 0.014843 0.0069405 0.0035096 -0.0097859 0.0036904 -0.0091239 -0.0091708 -0.016179 0.0052976 
по -0.013951 0.017956 -0.01831 0.0094037 -0.0013735 -0.011083 0.0028221 0.0041752 0.0079608 0.0066088 -0.013063 0.010077 0.013009 0.010155 -0.0072419 0.0013173 -0.014109 0.011701 0.016491 0.011774 -0.019609 0.00043361 -0.0081656 0.0023906 0.00013697 -0.0076042 0.019343 0.018554 -0.0020557 -0.0078699 -0.017737 0.012094 0.019355 -0.017963 -0.010422 -0.015822 0.0013885 0.00086548 -0.0068152 -0.0072882 0.019107 0.0094164 0.01817 -0.018019 0.0029124 -0.01759 0.01247 0.019175 -0.010979 -0.003749 
США 0.0047617 0.010184 0.016624 -0.01854 0.013231 0.016163 -0.012998 0.0026633 -0.0068294 -0.0041934 -0.0014284 -0.012652 -0.0096877 0.0044551 -0.012144 -0.014333 0.006763 0.01207 -0.013775 -0.0011442 -0.0097555 0.019793 0.0079621 0.013886 -0.017258 -0.012333 -0.019631 -0.002441 -0.0044125 -0.014584 -0.010015 -0.0015275 0.0079388 -0.011731 -0.012725 -0.0042341 -0.014304 0.0086371 -0.0010889 -0.0055249 -0.019996 0.018897 -0.01027 0.0061773 0.017622 0.0038223 0.016158 -0.0067285 -0.0078508 0.0070117 
и -0.0020181 -0.0036444 0.0047207 0.0097811 -0.018105 0.0070508 -0.019328 0.0013778 0.017574 -0.0048607 -0.00031504 0.0070567 0.011388 0.015785 0.0090782 -0.0071131 -0.014203 -0.010523 -0.011535 -0.011384 0.0031483 0.010147 0.011619 -0.014661 -0.0048122 -0.0050664 -0.0077813 0.0057699 0.012906 0.011292 0.0009943 -0.011608 0.005364 0.0055756 0.0095471 0.0071952 -0.0040377 -0.019711 -0.0095066 0.014565 0.0057656 0.0049898 0.0050689 0.0035668 0.01866 0.0046065 -0.0012589 0.0048389 -0.013661 -0.014306 
что 0.014597 -0.01613 -0.0018437 -0.0069696 0.00057877 -0.014641 -0.017249 -0.018826 0.019381 0.018367 -0.019927 -0.0048044 -0.0037568 -0.011931 -0.005757 0.0094034 0.0049987 -0.0057336 -0.015325 0.006416 0.014122 -0.013043 -0.012798 0.005343 -0.00081817 -0.0027531 0.010196 -0.018865 -0.016717 0.0043084 0.0060646 0.014181 -0.0089298 0.0060325 -0.017158 -0.014318 -0.014971 0.017837 0.017447 0.016745 -0.01544 0.0093017 0.0095736 -7.2778e-05 0.0075409 0.0091916 0.0163 0.015347 0.012193 0.014674 
из -0.0031887 -0.00077679 0.010843 -0.011325 -0.01938 0.015935 0.0036938 -0.016586 -0.013337 -0.008392 0.019488 0.017022 0.013574 0.01329 -0.012648 0.0063006 -0.011121 -0.0044299 0.0080257 -0.017815 0.014433 0.0070584 0.006842 -0.01958 -0.018187 0.0065308 0.017666 -0.0077554 0.018076 -0.015664 0.017349 -0.0050059 -0.014045 -0.010271 -0.0042729 -0.013752 -0.004633 0.01902 0.013029 -0.0072295 -0.012612 -0.0011051 0.013761 -0.0062272 0.0066173 -0.002642 -0.0042628 0.010511 0.011742 0.01764 
Парижского 0.00066209 0.018529 -0.01226 -0.0068179 0.0016312 0.016004 -0.011969 -0.00084646 0.012162 0.01296 -0.0084374 0.017886 -0.014467 0.0087123 0.010676 -0.011193 -0.013556 -0.015535 0.015545 0.0060673 0.01683 0.017195 -0.00056957 0.0027547 -0.014167 0.0095526 0.015704 -0.004664 -0.018457 -0.0099169 0.013245 0.010632 -0.0011766 0.016938 -0.003829 0.015672 0.0043198 -0.0080067 -0.0035163 0.0085185 0.0043055 -0.00080276 -0.0078511 -0.013557 -0.0016669 -0.0088518 0.014584 -0.0024181 0.0091098 0.013107 
соглашения -0.018951 -0.011789 0.0029363 -0.013469 -0.0037839 -0.010562 -0.00061825 0.0054937 0.0088173 0.0013752 -0.016358 0.005322 0.0062188 -0.016722 -0.013854 0.0047067 0.0014119 -0.010659 -0.0027801 -0.0082567 0.017307 0.0052092 0.0011123 0.0080861 -0.00024858 0.016796 0.0095459 0.01851 0.013271 -0.015298 0.0021021 0.0063273 0.016141 0.010631 0.019174 2.1617e-05 -0.0024169 0.015097 -0.018515 -0.017666 0.002326 -0.011998 0.0018776 0.0062755 -0.012165 -0.0079774 0.00074783 0.0087108 -0.0048336 0.0046157 
Трамп -0.0085694 0.0099035 0.00046705 0.0030697 0.018844 0.018553 0.0090229 -0.018871 0.010806 0.0085368 -0.00079555 -0.0094333 -0.0095009 0.0054003 0.017535 0.0016158 0.0056363 -0.0044813 -0.011613 0.017962 0.016556 -0.0059603 -0.0089711 -0.018443 0.0059332 0.007623 0.01853 0.007313 0.014679 0.013902 0.010809 -0.017699 -0.015823 -0.0036155 0.0019142 0.014039 -0.018148 0.018654 0.011549 0.0014781 -0.0074944 -0.0049042 0.01519 0.018799 0.009404 -0.019979 -0.0017305 0.017552 -0.0038728 -0.0061418 
не -0.010301 0.010575 0.0087117 0.00066472 0.018882 0.014601 -0.010342 0.010103 -0.019013 0.018438 0.0059388 0.003551 -0.0088045 -0.0023558 0.01454 0.010748 -0.0091548 -0.01764 -0.01134 0.0083165 -0.0082602 -0.0018658 -0.014796 0.013937 -0.0099424 -0.0084172 -0.01372 -0.019508 0.0091007 -0.0049166 -0.015636 0.0039094 0.0015071 0.0068021 -0.0013692 -0.0060375 0.0050384 0.011086 -0.009064 0.014932 0.011211 0.0015386 0.018062 -0.0011677 0.004663 0.015296 -0.00089315 -0.01761 -0.012729 -0.012008 
с 0.01867 0.010054 0.012285 -0.0089855 0.010155 0.0071294 -0.01587 -0.0055751 -0.017025 0.018785 0.00011019 0.0077977 -0.010468 -0.0030022 -0.012896 0.0079352 -0.013028 -0.01659 0.01473 -0.013139 -0.014244 0.0038337 0.012807 -0.0059587 0.0050559 0.012855 -9.3115e-05 -0.013261 -0.016591 -0.013198 -0.013798 0.013627 -0.0093562 -0.0022613 0.0078217 0.012511 -0.014409 -0.010127 -0.016686 0.017894 -0.012511 -0.00074624 -0.0087157 0.0064701 0.015598 -0.0061945 -0.0059102 -0.019777 -0.010402 0.016199 
о -0.011513 -0.016885 -0.01962 0.012847 0.0085163 0.0051297 0.0038318 -0.00094972 0.0010018 -0.0047459 -0.017003 -0.0075807 0.017038 -0.0074139 0.0097258 0.0053172 -0.019455 -0.012747 -0.010443 0.015321 -0.0042557 0.013241 0.019396 -0.019735 -0.0065169 -0.0047218 0.0060759 -0.015478 -0.012241 -0.0068332 0.010486 0.010449 0.0051723 0.019911 0.013198 -0.0027199 -0.018649 0.0027643 -0.017548 0.019309 -0.0023111 -0.0033442 -0.016391 0.0042183 0.00083648 0.00030911 -0.017204 -0.0012219 -0.011906 -0.015458 
на 0.014594 -0.0012281 0.017311 -0.016643 -0.0075988 0.007745 0.0085814 -0.0032878 0.0018006 0.0010523 0.0011746 0.011953 -0.019687 -0.018856 -0.010329 0.01683 -0.0034454 -0.0045213 0.0011194 0.0099701 0.015235 0.018637 0.003638 -0.0092557 0.0039318 0.010927 -0.01117 -0.0014935 0.00093039 0.018507 -0.01318 -0.019954 -0.012238 0.0036379 0.0077446 0.01207 0.0090084 0.007079 -0.00025898 0.002057 -0.0080838 0.013228 0.010524 -0.0099109 0.015265 -0.012262 0.019123 -0.015272 -0.00044605 -0.012139 
для 0.01019 0.012797 -0.011578 0.00047207 0.0096454 -0.0067903 -0.002551 0.0062375 0.016259 -0.0038575 -0.00090287 0.012874 -0.018564 -0.018258 -0.012047 0.011932 -0.019801 0.0080664 -0.0019042 0.019959 -0.015836 0.0042916 -0.010587 -0.0057755 0.0027159 0.0019105 -0.00027523 -0.01592 -0.015657 -0.0061241 0.012949 0.015469 0.0082969 -0.012774 0.013945 -0.010454 0.015546 0.010732 0.018004 0.00054711 -0.003009 -0.0094352 -0.0062042 -0.0018922 -0.01328 -0.016059 -0.0040245 -0.0079481 0.016309 -0.018714 
</s> -0.013239 -0.0070987 -0.016589 -0.013224 0.017085 -0.0053026 -0.0081906 0.0022294 0.0019519 -0.013389 0.0069511 -0.017227 0.0002574 0.018636 0.012665 -0.0024867 -0.010457 0.0019496 0.004373 0.0098665 0.0027298 -0.0072777 -0.013432 0.005503 -0.01126 -0.01164 -0.0092819 0.010398 -0.0092945 0.0045008 -0.0015538 0.015031 0.018614 0.0083771 -0.018754 0.010069 0.016013 -0.018004 0.016233 0.0047489 0.010277 0.011242 0.0003823 0.013354 0.0099348 0.010831 0.015234 0.015366 0.012436 0.019281 
- -0.012928 -0.0012065 0.011039 0.016915 0.0048518 -0.0035088 0.00082127 0.0020726 0.011571 -0.01445 -0.002146 -0.016049 0.018708 -0.017683 -0.01302 -0.01475 0.0056627 -0.0050353 -0.017272 -0.0096718 -0.012026 0.011636 -0.017401 0.0021585 0.016649 0.017081 -0.012328 0.013332 -0.009043 -0.0058843 -0.0047187 -0.0083048 0.015312 0.016093 0.001726 0.018235 -0.0016856 0.0088573 0.0014326 -0.006352 0.019084 -0.0068598 -0.018311 -0.0091558 -0.019838 -0.011802 -0.0065264 -0.019564 0.013983 -0.0056588 
соглашение 0.012104 -0.011058 0.016802 -0.0071466 0.014699 -0.019619 -0.0038947 0.0053749 -0.016923 -0.0071002 -0.01746 -0.0052756 -0.0079021 0.019587 0.0082699 -0.013881 0.0030856 0.010322 0.016918 -0.0014659 -0.017472 -0.0054754 0.0068625 -0.011834 -0.00077376 -0.0069895 0.018187 -0.018132 0.017604 0.010495 0.0037158 0.019581 0.0098428 -0.0045018 -0.013948 0.0049462 0.017257 0.0080964 0.0032254 0.019221 -0.016934 -0.019269 0.019135 0.014144 0.014958 -0.016035 0.0074845 0.010314 -0.0060841 0.019786 
к -0.007289 0.0093636 -0.013032 0.014775 -0.0033204 0.014553 -0.0016638 -0.018514 -0.0084064 0.010138 -0.0053898 0.0031313 0.012081 0.019761 -0.0053102 -0.013634 0.017394 -0.0092887 -0.0097415 -0.0066984 0.0070332 -0.017659 0.004407 0.016716 0.018438 0.014842 -0.012889 0.012114 0.016986 0.019141 -0.0031575 -0.0061383 -0.0037843 -0.015318 0.017692 0.013747 0.010432 0.0048388 0.00051797 0.0044628 -0.0024458 -0.0096973 0.016988 0.012593 -0.0093644 -0.0045887 -0.0049348 0.018916 0.015116 -0.0071554 
Дональд -0.014076 -0.0015157 0.0036789 0.013928 -0.0031554 0.013941 0.0092761 0.0019585 -0.0083398 -0.013848 -0.014177 -0.009812 0.013061 -0.019088 -0.015106 -0.012241 -0.0080982 -0.019764 0.0050472 -0.0075961 -0.0089323 -0.0058047 0.004821 -0.0082114 -0.017306 -0.00050005 0.014054 -0.015479 0.011124 -0.013714 0.0051962 -0.014161 0.0088451 -0.010823 -0.0083193 -0.0033257 -0.0111 0.016998 0.0014117 0.00042364 0.0063359 0.013164 -0.0042882 0.0076557 -0.0022569 0.000809 0.0095154 -0.0041825 -0.0015704 -0.0033252 
его -0.0021265 -0.015999 0.0029679 -0.0041906 0.011079 0.0089946 0.0065184 0.018295 0.019284 0.011232 -0.0095495 0.0048675 -8.0661e-05 0.0094445 -0.0074287 -0.013757 -0.0060996 0.018177 -0.0072487 0.0091771 0.0073369 -0.010374 0.0032474 0.011937 0.00028394 0.01164 -0.0062518 0.0022863 0.01329 -0.0028084 0.017195 -0.012318 0.011225 -0.018607 -0.013496 0.0034935 -0.019962 0.0099217 -0.0027264 -9.2611e-05 0.0047901 0.015335 0.019667 -0.010237 -0.01834 -0.0063287 -0.017218 0.0021988 -0.0096751 -0.019687 
Парижское 0.013147 0.0043506 -0.01245 0.01589 0.018536 0.0025064 -0.0038048 -0.0028885 -0.0013978 -0.004722 0.016952 0.0015317 0.00024952 0.001344 -0.0044707 -0.0062003 -0.0010341 -0.013778 0.017904 0.013584 0.0055425 -0.0028434 0.018944 -0.019994 -0.0092638 -0.015251 0.015028 -0.0069007 -0.0077314 0.0034196 0.019492 -0.015468 -0.00058152 -0.0063242 0.013104 -0.015893 -0.00010197 -0.0016216 -0.0025867 -0.018097 -0.0097628 -0.0026061 -0.017806 -0.0059634 0.013562 0.01994 -0.005402 0.010534 -0.013226 0.001193 
климату. -0.01958 -0.0086578 0.01327 -0.0019995 0.006694 -0.014503 0.0028889 0.018873 0.013677 0.0020845 0.012037 0.011643 0.0077102 0.013085 -0.0078355 0.019377 0.0085557 0.0015262 -0.009614 0.018834 0.0181 0.018364 0.012131 -0.014985 -0.0051579 -0.0035132 0.0007367 0.015307 0.0085904 -0.010623 -0.0054466 0.011624 -0.0071256 -0.006318 0.019191 -0.01298 -0.0078233 0.00082507 -0.014244 -0.0047255 -0.010281 0.0064702 0.014009 -0.016724 -0.019624 -0.018394 0.011619 -0.0053641 -0.010615 0.007811 
решение 0.017044 0.012769 -0.010067 0.017431 -0.008077 0.011516 0.019899 0.0017368 -0.016121 -0.0095052 -0.013986 0.0026952 0.014635 -0.0014625 0.012382 -0.0016398 0.00030628 -0.015282 0.000798 0.0041548 0.0063423 0.012248 0.001992 0.012706 -0.013707 0.011689 -0.0077606 0.0098503 -0.019529 0.0073398 0.0076763 0.017526 -0.0040418 -0.019976 0.0022748 0.0010938 1.8759e-05 -0.0052372 -0.0013514 0.003809 0.0068419 0.0097357 0.014039 0.016765 0.0095139 0.0027979 -0.0018109 0.0029803 -0.014181 0.015567 
выходе -0.013259 0.00076059 0.0079646 -0.016234 0.017888 0.008946 0.0048481 -0.0070107 0.013708 -0.019866 0.01198 0.0049126 0.015059 0.016692 0.016284 -0.0084664 -0.0072575 0.0086838 -0.014498 0.0041106 -0.010246 0.0014243 0.018055 0.0098159 -0.012544 0.0062744 -0.0043711 -0.0050169 0.015113 -0.017643 0.013556 0.00782 -0.012636 0.011428 0.012099 0.011282 0.017915 0.0031845 0.0031724 -0.018593 -0.0051904 0.017514 -0.00044087 0.019272 0.010673 -0.0013834 -0.017925 -0.0047783 -0.018675 -0.012199 
Трампа 0.0036218 -0.013854 -0.014123 -0.010892 0.017601 0.00079543 -0.018284 -0.0070083 0.0074913 -0.0066219 -0.0043305 0.017712 0.019632 0.015948 0.0065617 -0.0022986 -0.0018132 -0.0066483 0.015376 -0.0093287 0.017213 -0.00075863 0.0092964 0.0036925 -0.0063492 -0.014845 0.012933 0.01667 0.015604 -0.0087943 0.0030203 0.0061903 0.014003 0.0040864 -0.018148 0.0072449 0.01737 -0.013034 -0.013464 -0.0033801 0.011887 -0.010934 0.018581 -0.014978 0.014955 -0.015665 -0.0010779 0.016905 0.0038675 0.0025729 
этом 0.0093277 -0.019266 -0.0018494 -0.010798 -0.0065269 -0.011315 -0.015387 -0.0073404 -0.015297 -0.008923 0.0065715 0.012653 0.010337 -0.0018048 -0.016194 0.014182 -0.017586 -0.00024293 0.0093955 -0.010782 0.0084836 0.012939 0.011648 -0.009636 -0.0031838 -0.016229 0.0062502 0.018118 0.0016576 0.014593 0.0025181 0.003335 0.0056683 -0.0090902 0.010698 0.0019695 0.0015488 -0.0047261 -0.010276 0.0022654 0.0030385 -0.018137 -0.0032728 -0.017163 -0.0068202 -0.013384 0.010213 -0.018464 -0.00038876 -0.014997 
президент 0.0069245 -0.0071717 0.010801 0.014094 -0.010785 0.011867 0.0069296 -0.011938 0.01623 0.0049826 0.0048872 0.0096234 -0.017315 0.010332 -0.0053386 0.012277 0.010747 0.016566 -0.019214 -0.0065092 -0.0058837 -0.0086939 -0.0096316 0.0024515 0.010591 0.0071754 0.016387 0.010131 0.013557 0.0030905 0.011835 0.000886 -0.0051011 -0.0099454 0.015855 0.014558 -0.016462 -0.01765 0.0091982 -0.0069785 0.017014 0.0032384 -0.0017635 0.0096021 0.012351 -0.011077 -0.017816 0.0022062 0.008003 -0.0069092 
, -0.0013214 0.014972 -0.017488 0.0079202 -0.019097 -0.0049101 -0.014435 0.0084051 -0.019976 0.0090721 -0.017576 -0.0099839 0.0055075 0.01974 -0.0044478 -0.011125 -0.0097129 0.0016251 0.0096374 -0.0057099 -0.018537 0.012118 0.0090412 -0.001593 -0.010244 -0.015245 0.016273 -0.018254 -0.013439 -0.0035014 0.010857 0.0087367 -0.015747 0.013986 -0.0045574 0.014237 0.015008 -0.015645 -0.0059349 0.010921 -0.013486 0.01003 0.0098893 -0.012704 -0.0040625 0.0028986 -0.0046484 -0.0044924 0.019213 -0.006325 
от 0.0039335 -0.016998 0.0046434 0.015424 0.012428 -0.019199 0.004846 -0.0072614 0.003684 0.0069544 -0.0086435 0.017739 -0.019292 -0.0074615 -0.0097853 -0.0054602 -0.00055783 0.016207 -0.010103 0.019867 -0.013256 0.012369 0.001906 -0.012734 0.0040861 0.010227 0.01491 -0.019284 0.011777 0.0099482 -0.0087737 0.015524 -0.015976 -0.01375 0.018019 -0.0098557 0.00080532 0.010545 -0.011613 -0.017893 -0.013702 0.012539 -0.0097867 -0.0006024 -0.0035468 -0.0021731 0.019321 -0.011212 0.017289 0.0057871 
климату -0.015144 0.013499 -0.0062888 -0.0035477 -0.011958 -0.012792 0.00051416 -0.005698 0.0050978 0.0088111 -0.013542 0.0050739 -0.01904 0.013259 0.017694 -0.013585 -0.00069453 0.0013887 -0.0038703 0.0062028 -0.016414 -0.0055974 0.0084624 -0.019116 -0.018068 0.018507 0.016819 0.015864 -0.007575 0.017161 0.010545 -0.016211 -0.0028422 0.016007 -0.0047234 -0.0094125 0.01126 0.0041162 -0.0064963 -0.017726 0.016444 0.0065692 -0.010601 0.0080625 -0.01605 -0.018613 -0.00592 0.0017158 0.0028599 -0.0020182 
президента 0.0056879 0.013046 -0.0079601 -0.01726 0.0071696 0.012706 -0.012763 -0.014465 -0.0078425 0.013355 0.01138 -0.01781 0.0035036 0.0051387 0.012425 0.019915 -0.005481 0.00077976 -0.014622 -0.014121 0.017581 -0.017978 -0.018658 0.018973 0.00051202 0.0068989 -0.010745 0.018754 -0.018928 -0.011171 0.0081632 0.015708 0.018769 -0.0128 -0.013788 -0.011672 -0.018833 -0.010467 0.0020885 0.019363 -0.00055442 0.010373 0.019046 0.012856 -0.008596 -0.01627 0.0062199 0.019845 0.0030918 0.015469 
По -0.0078242 0.019372 0.0014181 -0.0071559 0.011311 0.014973 -0.005504 -0.013776 0.014495 -0.0073625 0.0090562 -0.012594 -0.013607 0.008451 0.011981 -0.012448 0.018354 0.0030302 -0.012325 0.013248 0.014195 0.016354 -0.019782 -0.013219 0.016061 -0.0069955 -0.0064986 -0.017542 0.0045572 0.0046738 0.00088042 0.019681 0.0066136 0.0058209 -0.004512 -0.014569 0.0089683 -0.018321 0.0026925 -0.019638 -0.019035 0.010735 0.0098861 -0.007143 -0.0029106 0.011538 -0.0089426 -0.0057664 0.01138 0.0054502 
— 0.0077483 0.0041375 -0.007841 0.0028464 0.0072247 0.013301 -0.01265 -0.0079258 0.017074 0.010211 0.013197 0.011779 -0.010299 0.0088493 0.0075366 -0.012155 0.0036819 0.006912 -0.012153 -0.0047503 -0.0020794 0.011501 0.019456 0.012591 0.0016271 0.005354 0.012946 -0.0018684 -0.0052148 0.0097193 0.01967 -0.0033417 0.0019108 -0.015369 -0.01934 -0.013489 -0.0017998 -0.0075816 0.018152 -0.0012739 -0.014599 0.017872 0.011551 0.013955 0.0083181 0.017024 -0.0010058 0.011341 0.014169 -0.0019494 
В 0.01203 0.0049602 0.0027564 -0.012804 -0.0011474 -0.0021527 0.018865 -0.0053959 -0.0032397 0.0020683 0.0077492 -0.01939 0.01827 0.0043339 0.004499 0.0085435 0.017483 0.0033935 0.010334 -0.0080312 -0.0083572 0.0082637 0.018001 0.012531 0.012111 -0.00048348 0.0044783 -0.0054045 0.01582 0.011277 -0.011596 0.0024999 0.002956 0.016781 0.0040975 0.012105 -0.018746 -0.017594 0.01333 0.010655 0.015877 0.013928 0.017877 0.019507 0.0071136 -0.019777 -0.0021727 0.011229 0.011862 -0.0052647 
он 0.014453 -0.015175 0.0016536 0.004218 -0.0027102 -0.017964 -0.015656 0.011475 0.010622 -0.017772 -0.0046561 0.0052659 -0.012681 -0.00038815 -0.019303 0.019526 0.015065 0.00076698 -0.00194 -0.018487 0.0091486 -0.0009218 -0.018402 -0.0085898 -0.011246 0.014706 0.0049885 -0.015382 -0.0039085 0.0091481 -0.0087464 -0.0071493 0.0022441 -0.0072099 0.00078647 -0.006954 0.01353 0.0020832 0.0046067 -0.012679 0.014742 0.0038802 -0.0058627 0.0075936 0.0065194 -0.013968 0.011134 -0.010259 -0.010606 -0.008725 
Президент -0.0155 0.0056105 -0.010209 -0.0078638 0.015917 -0.013599 0.0087618 0.0038561 -0.0042642 -0.0022518 -0.018346 -0.012764 0.015752 0.018257 -0.0068031 0.014939 0.010912 0.018766 -0.004514 0.014432 -0.013641 0.012061 0.0025773 0.0016399 0.0014202 -0.017808 -0.0047646 0.015508 0.014399 0.016829 0.019463 -0.0048256 -0.0040531 -0.019248 0.0076926 -0.0010658 0.0025831 -0.0040144 0.013958 -0.016886 0.017626 -0.013075 0.013445 0.0066937 0.00078571 -0.0072211 -0.0054103 -0.0043993 -0.0097614 0.011303 
соглашения, 0.012965 0.01591 -0.014154 -0.015872 0.0031372 -0.015657 -0.0072082 0.016534 -0.0019256 0.0076451 -0.012139 -0.0047371 0.0081708 0.016903 0.013591 0.012965 -0.01064 -0.0066016 0.0059721 -0.0078447 0.0047811 0.0033328 -0.000682 0.0058638 -0.0060099 -0.0055426 0.015016 -0.019352 0.0032848 -0.017382 -0.0074498 -0.015822 0.012254 -0.0097954 -0.0071143 -0.010323 0.004364 -0.015864 -0.016213 0.0092399 0.011069 -0.0011941 0.0017754 -0.006741 0.0030777 -0.018798 -0.015001 0.017723 -0.003055 -0.0092788 
климата -0.017215 0.01815 -0.016672 0.011242 -0.015612 -0.0031532 -0.010751 0.018017 0.016106 0.01805 0.017452 -0.00087235 0.016701 0.017198 -0.0012578 0.005626 0.012917 -0.0075154 -0.015226 0.0059483 -0.009069 -0.0020125 0.0076116 -0.0022525 -0.00044906 0.0041097 0.013482 0.0013767 0.0020042 -0.0051035 0.010515 -0.018937 0.0099679 0.001004 0.016928 0.019265 0.00061496 0.012914 0.010803 -0.00034488 0.0027203 0.015309 0.01821 -0.017822 -0.014861 -0.0051004 -0.011805 0.006385 -0.0062075 0.0079213 
заявил 0.0075588 -0.0085682 0.015091 0.013314 0.016352 0.01724 0.0021722 -0.0015851 -0.00070978 0.0083795 -0.015197 -0.019085 0.0054916 0.0068007 0.0037884 0.002349 -0.0092804 -0.012221 -0.017442 -0.019995 0.01112 0.0071488 0.016996 0.0090485 -0.01079 -0.01484 -0.0074919 0.012929 0.0045364 0.0049932 0.0073467 -0.0011731 0.011418 0.01344 -0.007064 -0.0011906 -0.017031 0.014832 -0.0055433 -0.017322 -0.0034186 0.0090022 -0.015333 0.016853 0.010111 0.018884 2.4155e-05 -0.017332 0.00090804 -0.017224 
как -0.0089671 0.0094896 0.0048964 0.00067776 -0.010183 0.010322 0.013827 -0.0057016 0.010598 -0.016287 -0.0177 0.0017841 -0.018102 0.0028548 0.0086837 -0.0064373 0.0089306 0.015586 0.0058933 0.01826 -0.015533 -0.004017 -0.0094957 -0.01211 -0.010519 -0.0038969 0.013152 0.012124 0.011394 -0.0029061 0.017105 0.0045652 0.0010151 0.00072856 -0.018027 0.011879 -0.015909 -0.0022004 0.011557 -0.018737 0.011601 -0.0030788 0.012662 -0.016075 -0.0087105 0.00091806 -0.011602 0.015628 0.0054416 0.012798 
мы 0.0043502 -0.017867 0.0099724 0.019113 -0.015157 0.0049873 0.011457 0.0071664 0.018986 -0.0043962 -0.0088425 0.0026659 0.0094734 0.012396 0.0067858 0.012237 0.0054819 -0.009583 0.014505 -0.0085527 -0.019903 -0.0040554 0.013306 0.0022316 0.0079652 -0.0094012 -0.0052955 0.005317 -0.0082417 -0.013244 -0.0034293 -0.0065594 -0.0092576 0.0059 -0.017364 -0.01023 0.017993 0.01092 0.013684 0.018268 -0.015961 0.0036482 0.0012844 0.016888 0.011833 0.012672 -0.0093615 0.0019062 0.0075711 0.016793 
. 0.0085161 -0.013092 -0.018665 0.0016877 -0.011204 -0.007195 0.015873 -0.0051798 -0.0088505 0.012535 -0.018853 0.0039241 -0.0083539 0.010676 -0.016812 -0.0065444 0.0065862 0.0048135 -0.0049168 -0.013045 -0.01936 0.01812 0.013866 0.018908 -0.01307 0.015273 0.012151 -0.0013718 -0.00045473 -0.015589 0.013319 0.01562 -0.0081191 -0.015015 0.008865 0.002944 -0.0060284 0.017729 -0.0030982 -0.018199 0.010695 0.018155 0.010504 0.0039411 -0.017533 -0.011144 -0.0053725 -0.019436 -0.014596 -0.0088913 
Об 0.006079 0.015781 -0.0064965 -0.016418 0.0044651 0.011239 -0.019528 0.0048918 -0.013504 -0.01079 -0.0033791 0.017319 -0.0031733 0.016004 -0.0084267 0.010442 0.0098652 0.0033394 0.019771 -0.011164 0.017161 -0.01722 0.019186 -0.00077663 -0.00096424 -0.009487 0.011481 -0.007386 -0.014789 0.0029083 0.018987 0.015142 0.0016258 0.016791 0.00093761 -0.018827 -0.0093117 -0.0055064 -0.017645 0.0085888 0.01035 0.018016 -0.0057612 -0.0006607 0.0064399 -0.015575 0.0094064 0.0060805 0.00035288 -0.017283 
заявил, -0.0039159 0.013022 0.0074041 -0.011633 -0.011151 -0.0072788 -0.0051599 -0.015134 -0.00097699 -0.0016994 -0.012197 -0.00069006 0.0084926 0.0021425 -0.017697 -0.019586 0.01094 0.00011516 0.011976 0.006915 -0.01896 -0.0012988 -3.1197e-05 0.0012578 -0.0091498 0.0098117 -0.019115 0.0049019 0.0020308 0.0059251 0.00031862 -0.0096151 0.0043795 -0.014706 0.00714 0.01764 0.00044717 0.00016638 -0.0084992 -0.013645 0.015233 -0.0095493 -0.013488 -0.010508 0.018365 -0.019768 0.0028336 0.0024529 0.016362 -0.012355 
соглашения. -0.0057792 0.013014 0.016047 0.013625 -0.016768 0.013427 0.00033455 0.0057375 0.016371 0.0083936 -0.00055263 -0.0071632 0.00028804 0.0033795 -0.014544 0.016937 0.013233 0.014454 -0.013693 0.013322 -0.0029675 0.019147 -0.019123 -0.0037312 0.0018681 0.0081291 0.012206 0.016218 -0.016228 -0.0078346 0.012684 -0.0016755 0.019494 0.0044581 0.0088994 0.014403 0.014134 0.016983 -0.012585 0.0097059 -0.017367 0.0015817 -0.019574 0.0044033 0.012633 -0.00027666 0.019377 -0.0089616 -0.012257 -0.016538 
страны 0.018246 0.018453 0.0086728 0.017419 -0.0049132 -0.017999 -0.009317 0.016588 0.015805 0.0041757 -0.0068382 6.9248e-05 -0.012236 0.010933 0.0087413 -0.018559 0.019522 0.0019532 0.013441 0.0044619 0.0079657 -0.0062523 -0.015392 -0.015925 0.0026894 -0.0077323 -0.00053762 -0.018586 -0.0048458 -0.0025878 -0.0057952 0.0074944 -0.0055412 0.0039832 -0.019284 -0.00035315 0.01966 -0.0063116 -0.00021211 -0.015086 -0.008462 -0.01743 -0.0030167 -0.015916 0.010067 0.0073408 0.0012574 0.00094175 0.010297 -0.019105 
это -0.01046 0.0099085 -0.0045067 0.016939 -0.0041754 0.018007 -0.011399 -0.010924 0.0079327 -0.014929 -0.002432 -0.012565 0.0063349 0.019395 -0.016267 0.015988 0.01495 -0.016318 -0.01592 0.008383 -0.0035733 0.0053652 -0.012654 0.0013764 -0.018193 -0.010087 -0.019115 0.0067629 0.0044329 -0.0086115 0.011075 -0.019405 0.014612 0.0124 0.015195 -0.018332 0.015575 0.014229 -0.010716 0.0049721 -0.016449 -0.016425 -0.004823 0.0098064 0.0054727 0.016346 0.012255 0.0060508 0.015688 -0.019939 
также 0.018341 0.0099637 -0.0065215 -0.0079053 -0.014809 -0.010573 -0.008251 0.0086769 -0.0037587 0.014405 0.015661 0.017764 -0.0081054 -0.0084097 -0.0086141 -0.0054584 -0.014184 -0.0042225 -0.014257 -0.019715 0.0085954 0.0094778 -0.0048052 0.0028415 0.0013822 -0.002209 -0.0031293 -0.01895 -0.0086665 0.012213 -0.0001192 -0.010985 -0.010772 0.015453 0.012999 0.018235 0.0017256 0.014456 -0.011334 0.017872 -0.0056675 -0.0081409 0.017265 -0.0054102 0.0065015 0.012329 0.019808 0.011088 0.0115 0.015043 
чтобы 0.011292 0.0049613 -0.018717 0.0041299 0.0096663 0.0031932 -0.0091946 -0.010949 0.0044539 0.014564 -0.015264 0.0048176 -0.003182 0.0025349 0.0042805 0.016073 -0.0073265 0.010465 0.0087354 0.0022769 0.006801 0.0024004 0.0015181 -0.0076669 0.013852 -0.0022966 0.011929 -0.0067189 -0.012951 0.018895 -0.0037809 -0.0012525 0.0070855 0.015091 -0.0072956 0.010178 0.0039286 -0.00022153 -0.0055266 0.0051636 -0.0043371 -0.013873 0.0062028 -0.012258 -0.0080186 -0.018869 -0.012331 -0.0065425 -0.014069 0.00099458 
климату, 0.015953 -0.0091642 0.012096 -0.016995 0.0084919 0.015908 0.019621 -0.0077847 0.017436 -0.0070402 0.0075323 -0.0060992 -0.0063276 0.016293 -0.0084655 0.0049764 0.01338 -0.0054564 0.018521 0.01918 -0.013085 0.01122 -0.0055524 0.0082876 -0.015702 -0.019312 -0.011451 0.012204 0.00032676 0.0080336 -0.0071747 -0.0051057 -0.015719 -0.012828 -0.0038495 0.014222 0.0064224 0.0094214 -0.0094324 0.0086657 0.019864 0.0023854 -7.3323e-05 -0.0066643 0.012105 -0.019183 -0.0070612 -0.017025 0.00067644 0.010348 
Дональда 0.0089637 -0.010425 0.006481 0.014918 -0.013711 -0.017712 -0.015588 -0.0050565 0.016534 -0.012852 -0.010692 0.017805 -0.015708 -0.017207 -0.017058 0.017409 0.0053996 -0.014947 -0.01604 0.014519 0.003319 0.0027831 -0.0011998 -0.0062559 0.0064601 0.0039896 0.0068789 -0.019657 -0.01391 -6.4814e-06 0.016921 -0.0079545 -0.016418 -0.012053 -0.019523 -0.0087549 -0.01675 -0.018644 0.0066039 0.0031323 -0.013924 0.0091361 0.006303 -0.0024561 -0.018855 0.013656 -0.0088572 -0.016426 -0.01038 -0.012809 
2015 -0.0092908 -0.0069825 0.017823 0.016623 0.0061533 0.016654 -0.01337 -0.00069672 0.0016738 0.0027836 0.013395 -0.01905 0.00070434 0.0046273 -0.019845 -0.019169 0.015975 0.0068195 0.0052893 -0.0082834 -0.016615 0.0086847 0.0005131 0.014669 0.0065255 0.0050904 0.00085582 0.010246 -0.0052735 -0.00089337 -0.0081827 -0.015038 -0.0014421 -0.00016702 -0.011536 0.01084 -0.0083218 -0.0040082 -0.014542 -0.01729 -0.017571 -0.013969 -0.017094 0.0075794 0.0012528 -0.018716 -0.010242 -0.0003238 -0.014594 -0.0021555 
об 0.0021164 -0.0019096 0.0041628 0.017857 0.0071907 0.0087816 -0.0014634 -0.012535 0.00057858 0.0049699 0.0070212 0.0019849 -0.006009 -0.0074629 0.0023469 -0.014473 -0.010282 0.019245 0.004417 -0.007241 -0.0050404 -0.0080554 -0.01283 0.017658 -0.014812 -0.011373 -0.011689 -0.019604 -0.0025086 -0.014373 -0.018406 0.0014728 0.014594 0.012735 -0.011013 0.0018069 0.00069619 -0.0028045 -0.00078611 0.012641 -0.0037077 0.013645 -0.0084276 0.012666 -0.01916 -0.0028867 0.0020833 0.010498 0.019964 0.017894 
США, -0.01866 0.0061316 0.0021323 0.01281 0.012592 -0.015832 0.00074472 -0.016207 0.013005 -0.0012539 0.012282 -0.0096491 0.017803 -0.0022462 0.01505 -0.0056036 -0.0024616 0.016629 -0.010904 0.0030383 -0.018697 -0.019059 0.016566 -0.0011059 0.0024214 0.0061657 0.016713 -0.018719 0.019502 0.005925 -0.00332 0.0038055 0.016777 0.0038353 0.0065396 -0.00074595 0.016236 0.01178 -0.010283 -0.0045311 0.0085268 -0.017941 0.018025 0.016367 -0.0015444 -0.017205 0.0023227 0.0028231 -0.0086174 0.013559 
переговоры -0.011278 -0.017011 -0.0043781 0.0023 0.017574 0.016066 0.015311 0.0016008 0.0037735 0.018853 -0.0066062 0.010468 -0.015009 -0.0041165 -0.018572 -0.01688 0.0012035 -0.01816 0.001981 -0.009985 -0.005794 0.0072858 0.0080714 -0.00052364 0.0086809 0.0113 -0.0062381 0.0032383 -0.0045868 0.017749 -0.0024937 0.01612 -0.018205 -0.010357 0.016586 -0.008681 -0.014137 -0.011531 0.01366 -0.015131 -0.017068 -0.0013383 -0.005369 0.015297 0.0016755 -0.004509 -0.012055 -0.012329 0.014524 0.0097256 
климатического 0.017894 -0.014402 0.0040388 0.0090906 -0.01723 -0.01544 -0.016652 0.0023146 -0.013951 0.019329 0.01941 0.017763 -0.0063531 -0.01793 -0.0027685 0.006165 -0.0027127 -0.013057 -0.018573 0.017423 0.019088 -0.011959 -0.017454 -0.00367 -0.0068663 0.019478 0.016697 -0.012772 -0.018545 0.01362 0.018032 0.017979 0.015672 0.018142 0.0081663 3.3295e-05 -0.016693 -0.0045076 0.01835 -0.015764 -0.0096631 -0.0029098 0.0056509 0.018284 0.011578 0.004272 -0.019524 0.0059501 0.0061404 -0.013606 
климата. -0.0052708 0.019759 0.016016 0.010499 -0.0064789 -0.011873 -0.0041024 0.013282 -0.0087804 0.0042826 -0.0036382 0.0060152 0.0026385 -0.0085878 0.010215 0.0085366 0.014527 -0.0029298 -0.0003464 0.0014262 0.0040419 0.0082664 -0.0087715 -0.0035722 0.0015572 -0.010906 0.010113 0.0055852 -0.0002507 0.007899 0.00016576 0.0015806 0.017858 0.0085605 0.0071219 -0.013746 -0.0044223 -0.01014 0.0014611 -0.019539 0.015763 0.013357 -0.002988 -0.0059607 -0.0090191 -0.00016122 0.015354 -0.0017095 0.0080412 0.005253 
борьбе 0.015338 -0.014555 0.018003 0.013017 -0.0088586 0.014064 -0.01126 -0.016518 0.0053513 0.0020372 0.0090405 0.0043623 -0.019044 0.018784 0.015976 -0.014761 -0.010844 0.010385 -0.010769 -0.012569 0.0093298 0.019796 -0.016837 0.0094968 -0.0091874 -0.0022806 0.018371 0.014769 -0.012641 0.011584 -0.01438 -0.012521 -0.00085 0.008209 0.0073589 -0.0013737 0.005409 0.00081643 -0.017834 0.019018 -0.00031227 -0.0003795 0.017055 0.008547 -0.016379 0.014022 -0.018459 -0.01896 0.013478 -0.01854 
парниковых -0.0039753 0.01787 -0.013985 -0.014771 -0.0066621 0.013513 0.0037509 0.0022813 2.3902e-05 0.0061655 0.0081127 0.014185 -0.015886 0.0062216 0.014117 -0.011639 -0.0082186 -0.0014028 0.0075289 -0.0012762 -0.015628 0.0044647 0.0089456 0.011222 0.00045562 -0.0050431 0.018031 0.00040395 -9.0846e-05 0.015499 -0.014572 0.019952 0.0010335 -0.011171 0.016985 0.0046073 -0.0059683 -0.00011302 0.0081144 -0.0062701 0.010185 0.0098162 0.0041426 0.016417 0.0031765 -0.010661 -0.0094887 0.0092149 -0.0082926 -0.0064198 
году 0.008672 0.0086186 -0.0094226 -0.003944 -0.014293 -0.00058742 -0.017214 0.0047785 -0.0074558 0.013864 0.0065864 -0.013882 0.0083905 -0.0016081 -0.018791 0.011357 0.010472 -0.01503 -0.001895 0.0076249 0.0072191 -0.017977 -0.011387 0.0047993 0.0074629 -0.0092863 -0.010493 0.018196 -0.015706 -0.017912 -0.0091593 0.0094551 0.0030791 0.0029991 0.013315 -0.00042995 0.01919 0.011875 0.008743 -0.019478 0.017781 -0.0012431 -0.0031954 0.01338 -0.0096797 0.018892 0.011933 -0.018654 0.011165 0.0080764 
окружающей -0.0073236 -0.01965 0.013916 -0.010045 -0.011923 -0.018115 -0.011955 -0.0071399 -0.016855 0.0097526 0.0043432 -0.017567 0.016947 0.0053799 0.011879 -0.018653 -0.011373 0.011217 -0.01704 0.016654 -0.00014767 0.014985 -0.0094512 -0.01408 0.0055998 0.0026859 -0.0064139 0.0054384 0.013987 -0.00025211 -0.018291 0.013415 0.0073973 0.01499 0.019525 0.0014625 0.0046705 0.0098467 0.015412 0.016433 -0.0074908 0.0031952 -0.015346 -0.0076302 -0.0017697 -0.0098626 0.0053934 0.0082316 0.018331 -0.0079428 
Маск 0.015457 -0.010897 0.00048945 -0.0082342 -0.0099172 0.0088466 -0.0062259 0.004849 0.014795 0.011381 0.015648 0.0036621 -0.0052651 -0.0087475 0.012109 0.011607 0.016098 0.00054181 -0.0141 -0.010084 0.0076772 -0.0032409 0.010854 0.00092127 0.001427 0.00033378 0.0051839 -0.01515 0.0192 -0.017992 -0.014015 -0.01378 0.0073835 -0.007643 0.016166 -0.0049566 -0.017105 0.0040257 -0.012516 -0.012598 -0.0088636 -0.012901 0.01256 -0.016357 -0.0087249 0.018802 -0.0078469 -0.016394 -0.0090098 -0.019694 
время -0.012184 -0.018689 -0.0083993 -0.0041072 -0.018167 -0.013976 0.010642 0.0079758 0.017277 -0.0079963 -0.006735 -0.00057659 -0.010722 -0.012136 -0.010575 -0.011349 -0.017724 -3.3898e-05 -0.013746 -0.0088115 -0.014367 -0.014142 -0.015013 0.010727 -6.9364e-05 -0.010171 0.011274 -0.0046834 -0.004505 0.017821 0.016034 -0.0092508 -0.0014264 -0.012434 -0.0083415 0.0045098 -0.012222 -0.01405 0.0083425 0.017712 0.0027446 -0.0086128 0.018988 -0.012686 0.0068924 -0.0046208 0.0069686 -0.018962 -0.008638 -0.016697 
2016 0.018097 0.0027338 -0.0012265 -0.016954 -0.0036286 -0.0029885 -0.00055201 0.0083596 0.01236 -0.0018886 -0.019584 -0.0014092 -0.01007 0.0059541 -0.01869 0.0061373 -0.010026 0.014808 -0.01839 -0.015767 -0.0030528 0.019549 0.01717 -0.00025407 0.0055252 -0.013366 -0.0024065 -0.0028205 0.0040452 -0.014682 0.016497 0.007165 -0.013743 0.016591 0.0077854 0.011969 -0.01005 0.010938 -0.019889 0.01306 0.0099767 -0.012102 -0.0029439 -0.019883 -0.008016 0.016243 -0.0086435 0.019107 -0.018598 0.018681 
выйдут 0.013286 -0.0079854 -0.014884 0.013254 0.015563 0.0068578 0.0065061 -0.011489 -0.013918 -0.012268 0.002027 0.012193 -0.017003 -0.0065535 -0.016565 0.01325 -0.018183 0.0078792 0.011135 0.018711 0.0068483 0.016258 -0.0076553 -0.017815 -0.013571 0.0068034 0.017499 0.010421 0.018629 0.0033886 0.018114 0.012115 0.0023146 -0.0085184 0.0003346 0.0078673 0.0079043 0.00020006 0.0059131 -0.013466 0.0032483 0.0069578 -0.0022656 0.012978 -0.017253 -0.016204 -0.0069696 -0.0095948 -0.0074427 -0.017774 
США. 0.00099017 0.0017734 -0.012323 -0.0068688 0.012719 -0.01985 -0.0064599 0.019889 -0.0021829 0.0054254 0.013494 -0.008574 0.0074516 -0.0034387 0.0099167 0.0057052 -0.01212 0.0020726 0.015356 -0.0060801 0.0156 0.0072959 0.017052 0.010176 -0.019227 -0.017966 0.018223 0.008548 0.014072 0.011103 -0.0057901 0.0017246 0.011569 0.014326 -0.011337 0.0096753 0.0038968 -0.0026268 0.013366 0.0023265 -0.019358 -0.018116 -0.013748 -0.018001 0.0066362 -0.0093969 0.00032665 -0.011226 0.0079212 -0.0045007 
рабочих 0.00019136 -0.0056582 0.0083288 0.0014567 0.010166 0.0030975 0.012821 -0.015715 -0.013731 0.0066459 0.015718 -0.0011762 -0.0072547 0.0023577 0.019314 0.00035455 -0.015718 -0.010775 -0.012832 -0.0096107 0.013311 0.0087993 -0.0065173 -0.010969 0.0097435 0.010085 -0.0086863 -0.016029 0.009888 0.0072802 0.014275 0.0078233 -0.015426 0.010725 -0.011723 -0.016214 -0.014419 0.019846 0.0055849 -0.019713 -0.010843 -0.012702 0.0029624 0.0067489 -0.0098798 0.0050968 0.0086526 0.014282 0.00097602 0.0001183 
своем 0.019758 -0.0061883 -0.0065847 -0.00047263 -0.014367 0.013432 -0.0091599 -0.0085159 0.013652 0.017249 -0.017195 -0.006494 -0.0013683 0.0057301 -0.0080091 -0.0023913 0.011098 0.0029061 -0.019002 0.0067903 -0.013799 -0.0080645 0.018832 0.005616 -0.013818 -0.012084 0.0049628 -0.016486 0.019559 -0.019907 0.0023742 -0.013106 -0.0044262 -0.018524 -0.012178 -0.015121 -0.0070502 0.0037242 0.015011 -0.0096893 -0.014234 -0.00915 0.014726 0.0062389 -0.0079378 -0.01005 -0.0099375 0.017673 -0.015274 -0.0072151 
ее 0.0166 -0.013388 -0.0012024 -0.0085625 0.017143 -0.006558 -8.5705e-05 0.015473 -0.001322 -0.0077977 0.018376 0.015915 0.015426 -0.0086143 0.0024874 0.016426 0.016943 -0.0096428 0.012848 -0.00895 0.0042741 -0.0013771 0.0034867 0.0039493 -0.016666 0.0028258 -0.0017335 -0.0024357 0.018114 0.0080188 -0.0098455 0.0054136 -0.019349 0.015336 0.0023278 0.0013474 0.0074262 -0.011853 -0.013978 0.019247 0.0085134 0.003266 0.015337 -0.016015 -0.013081 0.012221 0.013202 0.0016447 -0.012388 0.012254 
2025 0.00080055 -0.006322 -0.011001 0.0044914 -0.017273 -0.0081427 0.0085547 0.016526 0.004453 0.013839 -0.004121 0.0094005 -0.0068455 -0.0020464 0.0092876 0.0033202 -0.012939 0.016138 0.016277 -0.00074127 -0.015266 -0.019345 0.0090456 -0.0060872 -0.0031345 -0.019724 -0.016059 0.01866 0.015168 0.0073491 0.0013293 -0.015805 -0.0092209 -0.0057303 0.011811 0.011472 -0.00061548 0.0077496 -0.0072424 -0.00073649 -0.019638 -0.0087323 0.0022581 -0.0021085 0.0052102 -0.0095988 -0.010673 0.0040316 -0.014187 -0.0021174 
более 0.013456 -0.010677 0.0088544 -0.0039298 0.0062713 0.017806 -0.0034738 0.0075479 -0.001894 0.0072441 -0.01148 0.0017567 0.007518 0.01637 0.0096974 0.01734 0.011028 -0.01575 -0.0079746 0.013103 -0.0024432 -0.018158 -0.0089582 0.0091937 0.013465 -0.0095025 -0.01288 -0.0060657 0.0081052 -0.0025757 0.010721 -0.014551 0.0051806 0.01629 -0.011783 -0.012529 0.015739 0.0044572 -0.010687 -0.017213 -0.016783 0.016474 -0.0086117 -0.010926 0.012958 -0.016445 -0.01701 -0.009721 0.017346 0.01358 
было 0.011045 0.017468 0.0043892 -0.0060661 -0.01652 0.010885 -0.014013 0.010426 -0.014328 -0.001883 -0.0017879 -0.0084286 0.0090309 -0.0036364 -0.012266 -0.017459 0.016124 0.016113 -0.0080168 -0.0078217 -0.010038 -0.018998 0.0062621 -0.0031512 0.019814 0.019948 0.013086 -0.0070028 0.0097025 0.0035191 0.0099438 -0.01573 -0.012701 0.0084587 -0.013707 0.0094446 0.017505 0.0066915 0.0061786 -0.0021293 -0.010969 -0.0049053 0.018669 -0.0036297 0.010837 0.011358 -0.012445 0.011516 -0.013656 -0.015247 
написал 0.010947 -0.016188 0.016011 -0.010408 0.016686 0.018025 -0.0088889 0.013255 0.010459 0.019695 0.010997 -0.004921 0.0009943 -0.0045602 -0.009148 0.0097319 0.012847 -0.018564 -0.016679 0.013579 -0.010807 -0.01111 0.012591 -0.012432 -0.0012326 -0.010184 0.0038775 -0.003325 -0.016121 0.0063368 0.010154 0.0051749 -0.010995 -0.0041086 0.0023761 0.005433 -0.014754 -0.017108 -0.0093037 0.0039632 -0.0035844 -0.014312 -0.0035788 -0.012011 -0.0048968 0.018899 0.0076607 -0.002746 0.015743 0.018169 
объявил 0.019816 0.015246 -0.010794 0.013908 0.0038812 -0.0057295 -0.013608 7.8531e-05 -0.0063672 -0.01942 0.0080512 0.0058111 0.017618 -0.019527 0.015649 -0.015827 -0.017769 0.0087073 0.00018943 -0.01772 0.0046079 -0.0042052 -0.016893 0.011822 0.0016716 0.0144 -0.0051448 -0.014992 0.0072471 0.018334 0.016421 0.015926 -0.0013289 -0.017939 -0.0086105 -0.017114 0.018754 -0.016247 -0.0042945 -0.0062861 0.0021785 -0.01678 -0.0093182 0.007159 0.005188 -0.0038291 0.01566 -0.0081594 -0.018401 0.012001 
которые 0.0033368 0.0099402 0.010219 -0.0041258 -0.012246 0.01874 0.0059604 0.0059124 -0.0074464 0.0024734 -0.0010278 0.013744 -0.019999 0.0061687 -0.018985 0.012764 0.014773 -0.007216 -0.0070246 -0.012258 0.015253 0.011059 -0.010761 0.0046457 0.017028 2.9679e-05 -0.017157 -0.0091418 0.00010229 -0.014858 0.0013834 -0.012419 5.9622e-07 -0.0079711 -0.010516 -0.0032234 0.012382 0.0099763 -0.013459 -0.00096782 0.011468 0.013541 -0.0029796 0.015864 0.010452 0.012707 -0.017099 -0.012506 -0.016783 0.0014489 
может 0.010444 -0.019873 -0.013293 0.0018093 0.0027195 -0.0076505 -0.012516 0.0043101 0.011235 0.0089761 0.010901 0.018132 0.0061324 0.0016335 0.011553 0.00032803 0.0083305 -0.0073407 0.012472 -0.0077633 -0.00033345 -0.010277 -0.013857 0.012761 -0.0019133 0.013471 0.011905 -0.013394 0.0090465 0.0021288 -0.018041 -0.015988 -0.012747 -0.012778 0.010837 -0.0027092 0.017147 -0.0089038 -0.011702 0.0083454 -0.016488 3.4354e-05 0.0028159 -0.0013698 0.0060139 -0.0070285 -0.0050232 0.018214 0.015451 0.0059818 
ООН 0.00077324 0.0022611 -0.016381 -0.017195 0.0017784 0.0044263 -0.00080562 -0.0075063 0.0087699 -0.0097345 0.010971 0.014651 -0.0015244 0.010849 -0.018148 -0.011412 -0.017467 -0.017836 -0.00027191 0.013321 0.015894 0.0017158 0.016807 -0.0069074 -0.0037566 -0.019969 -0.0039456 0.0027503 -0.0016274 0.011603 -0.015066 0.015757 -0.016918 0.0071453 -0.0061417 -0.0093936 0.0056917 0.0036604 -0.015707 0.010032 -0.002057 -0.016994 0.010451 -0.0046803 -0.0047571 -0.010355 0.0081216 -0.0022034 0.0012606 0.017954 
словам, -0.0085755 -0.010208 0.018364 -0.019751 -0.019713 -0.010074 0.0037973 0.011175 -0.018396 -0.0054996 0.0087234 0.0095583 -0.0010612 -0.00816 -0.0074942 0.01766 -0.003821 -0.0023964 0.0077484 -0.0031344 0.010982 0.019389 -0.00089757 0.010142 -0.0097829 -0.0052415 0.0055849 -0.0067668 -0.0098968 -0.019349 0.013151 0.0065887 0.0088445 -0.011549 0.0091967 0.0038211 0.0027914 -0.018412 -0.0042205 0.0057253 0.0099635 -0.0068462 0.019201 -0.0020592 -0.0057273 0.0020586 -0.014907 0.0052683 -0.0059394 -0.017288 
года -0.0089535 -0.0037464 0.0083222 -0.01382 0.015507 0.010439 -0.0093967 -0.0043621 0.0021611 0.016731 0.017089 0.017391 -0.015569 -0.0074501 0.014586 -0.010289 -0.0016726 0.0075835 -0.010082 -0.011036 0.017513 -0.0087398 0.0039883 -0.015392 0.0016617 0.010049 0.012988 0.019359 -0.0058097 0.019885 0.0071981 0.019537 -0.011232 0.018209 0.0063214 0.0027193 0.018184 0.011848 -0.014092 -0.018716 -0.006947 0.014758 -0.014238 -0.0036551 0.015043 -0.0010505 0.0047771 0.008286 0.0010472 -0.00043951 
Меркель -0.013174 0.010158 -0.0053188 -0.006106 0.0070739 0.0084176 0.019792 -0.010577 0.019632 -0.0044165 -0.01952 0.010663 0.009318 0.0054867 0.014453 -0.011996 -0.0034659 0.011003 0.016 -0.016503 0.00084116 -0.011693 -0.0076799 -0.0049094 -0.010525 -0.01805 -0.017648 0.010094 0.00099904 0.010536 0.0065784 0.011113 -0.005796 -0.01554 0.016408 -0.01188 0.016611 0.011183 -0.015432 0.00579 -0.018033 0.0054621 -0.0063065 0.015126 -0.010043 -0.019377 -0.0039629 -0.0026342 0.018196 0.0069124 
Он 0.019209 -0.0040184 -0.00030943 0.0095033 0.0033804 0.0087539 0.0052619 0.0079633 0.014638 -0.0072833 0.0077047 0.012554 -0.013869 0.011385 -0.01382 0.008964 -0.005645 0.011381 0.0028177 0.018971 0.0041979 0.012467 0.0020379 -0.0068812 -0.016603 0.013363 -0.019818 0.0040112 0.0046737 0.0066964 -0.01424 0.017895 -0.005388 -0.00035053 -0.0035944 -0.010308 0.0064733 -0.019368 -0.00063359 0.014809 -0.012067 -0.0148 0.017933 0.0066176 -0.019755 -0.0073189 -0.011033 0.0012735 -0.01623 0.0044427 
будет 0.009612 -0.01642 0.010409 0.0066912 -0.0011516 -0.019749 -0.0070877 0.0066298 -0.0097428 0.0057094 0.004228 0.0072765 -0.0094655 -0.015896 -0.016029 -0.0051321 -0.0081836 0.0083176 0.013007 0.013908 0.0030471 0.011645 0.0060955 0.0096141 -0.019552 -0.018225 0.019966 0.017927 0.0021709 0.0038448 -0.018496 -0.010001 -0.011675 0.0068037 -0.0031949 0.019469 0.012598 -0.015439 0.002502 -0.012031 -0.0024371 -0.014818 -0.0074402 -0.010821 0.0097831 -0.016114 -0.010864 -0.00067328 0.0058565 0.015267 
то 0.00043418 -2.7461e-05 -0.0015062 -0.0076188 0.016449 -0.013848 0.0061648 0.015631 -0.01257 -0.0071457 -0.018543 0.016988 0.003184 -0.018835 0.018162 -0.018443 -0.011664 -0.019036 0.012314 0.011109 0.014111 0.0019078 0.006538 0.017719 0.0033534 -0.0072861 0.0053188 -0.0067142 0.013461 -0.016183 0.019814 0.009626 -0.00016378 0.0077038 -0.008148 -0.0050832 -0.00033958 -0.0080995 0.0025838 0.0052685 0.0031603 -0.0065727 -0.0028643 -0.013256 0.0071658 0.0021249 0.0048732 -0.013364 0.019797 0.015665 
Ранее -0.016483 0.0024229 -0.010215 -0.01404 0.011524 -0.019958 0.003976 0.01501 -0.00081232 -0.0011832 0.0006903 -0.015509 0.019699 -0.014506 0.0014471 0.0077866 0.0056131 -0.014651 0.014018 -0.014343 -0.014438 -0.016255 -0.00016617 0.015943 -0.019871 0.0020653 -0.0039054 0.01144 -0.011978 0.012371 0.0117 -0.012405 -0.0070719 -0.00034615 -0.010965 -0.013984 -0.010134 -0.0055978 -0.015353 0.01047 0.0027037 -0.014459 0.013931 -0.015275 -0.008333 0.0054767 -0.0061471 -0.016704 -0.017911 -0.0025667 
связи -0.017836 0.0017896 0.014976 0.0044392 0.0042108 0.017095 -0.0095195 -0.0074186 0.019607 -0.0011682 0.00951 -0.0016372 0.011475 -0.0015074 -0.019087 0.011764 -0.0037117 -0.018064 0.013227 0.0012915 -0.0046489 0.018314 0.013682 -0.0094826 -0.017186 0.015956 0.016246 0.0057801 -0.018926 -0.0048141 0.015117 0.011058 -0.011824 -0.017107 0.0016274 4.3327e-07 0.014162 -0.0028646 0.0072954 -0.01603 -0.001921 -0.0082029 -0.010096 -0.01207 0.0099026 -0.014755 0.019944 0.0090857 -0.017114 -0.0030108 
Трампа, -0.011123 -0.010064 -0.0024868 0.017982 -0.00039037 0.0044315 -0.016759 -0.01707 0.015422 -0.019872 -0.01817 -0.007366 -0.01021 0.0081113 -0.016558 0.00038385 -0.0063791 -0.0051406 0.0095626 -0.012398 0.017604 0.0016173 0.0073513 0.0056085 -0.016432 -0.017929 -0.0045178 -0.017315 0.013365 0.005961 0.01525 0.017743 0.012913 -0.015451 -0.014621 0.0037145 -0.016572 0.0039566 0.00013195 0.019918 0.0083451 -0.01189 -0.0061001 -0.019062 0.0072176 0.0056701 -0.0017511 0.012973 0.014312 0.0069108 
сказал -0.0048156 -0.0021607 0.0038529 0.0041113 0.00062099 0.011405 -0.010164 -0.01892 -0.016764 -0.0017191 0.0018038 -0.018122 -0.0016768 -0.014657 -0.001371 -0.019965 -0.013758 0.002737 0.0098208 0.0055945 -0.0031316 -0.0084142 0.011671 0.0020159 0.015853 -0.013032 -0.011551 -0.018052 0.013282 -0.018897 -0.0077966 -0.014463 -0.016992 -0.012333 -0.015765 0.0013871 0.0039061 -0.016771 -0.010299 0.001142 -0.012094 -0.0071909 -0.019959 0.018902 -0.0074298 -0.01733 0.019627 -0.0016089 0.0056422 0.003869 
Это 0.014895 -0.013355 0.016656 -0.0034157 -0.016019 -0.014081 0.0078637 0.016144 -0.016489 -0.0040217 -0.019981 0.0044411 -0.00061061 0.012323 -0.014911 0.019669 -0.016519 0.012731 -0.011232 0.0095581 -0.0059398 -0.0063178 0.0056277 -0.013337 -0.0015987 -0.014659 0.014098 0.013752 -0.010327 0.015463 -0.0029281 -0.012023 -0.0061487 -0.019367 -0.01268 -0.016879 -0.019871 0.0083644 0.018393 -0.01369 0.011859 -0.016223 0.019495 -0.011992 0.012733 -0.014701 -0.013627 -0.018353 -0.011256 -0.0093302 
глобального -0.012141 -0.017614 0.0040516 -0.011347 -0.012368 -0.012279 0.0012035 -0.01457 0.0051181 0.015778 0.0058888 -0.0082664 0.016602 0.013979 -0.013959 -0.0042687 0.01099 -0.0075025 0.011265 -0.013199 0.019486 0.0043376 -0.0039112 0.0097375 -0.013536 0.011355 0.0012841 0.0033554 -0.015788 -0.0050239 0.015101 -0.013816 -0.014628 0.0091828 0.016863 -0.017277 0.004386 0.0075469 -0.019914 -0.014995 -0.019424 -0.0041268 0.01182 0.0052896 -0.019279 -0.015976 -0.01019 0.002679 0.016631 0.0080796 
которое -0.014 0.010369 -0.0024288 0.019478 0.0089091 -0.016863 -0.012708 0.00080567 -0.00039447 -0.01663 -0.0023325 0.0068886 -0.0064711 0.01075 -0.0086995 -0.00065068 0.019586 -0.0013672 0.0096845 -0.010701 -0.019137 0.01158 0.0076831 -0.0076172 -0.017642 -0.0062966 -0.008474 0.0067568 -0.0079172 -0.012998 0.001635 0.013676 -0.0079488 0.0069704 -0.0020595 -0.011154 -0.0062098 -0.01276 0.012652 -0.0053452 0.0078852 0.016016 0.0080795 0.019347 0.00051954 -0.0065358 -0.00014475 0.01712 0.0067946 0.0073324 
соглашение, 0.0031834 -0.012828 -0.0099458 0.0053166 -0.014756 -0.012949 -0.0015942 0.0031137 0.010322 0.0053899 0.018742 -0.0006322 -0.010875 0.016328 0.013671 -0.012414 -0.0071353 -0.013662 -0.011803 -0.019052 -0.0068993 0.0091479 -0.016039 0.0029387 -0.0076917 -0.010259 -0.0085305 -0.012929 -0.0036113 0.019039 0.013645 0.019759 -0.017026 -0.007521 -0.0067151 -0.0010348 -0.0061172 -0.011321 0.0099061 0.0034048 -0.0083813 -0.017022 -0.0080258 0.0030484 0.012752 0.011291 -0.013142 -0.0097488 0.0065948 -0.016454 
при -0.019555 0.014373 -0.015496 -0.0090612 0.017546 -0.015043 -0.014184 -0.00051502 0.0036049 -0.0033743 0.0086316 -0.0056968 0.015507 0.019835 0.015293 0.0099133 0.010334 -0.0027744 0.0016799 0.00031449 -0.0017361 0.016128 -0.010747 0.0010326 -0.016936 0.0090022 0.011677 0.013228 0.013771 0.0016581 -0.0068689 0.0034636 0.011011 0.014823 0.018229 -0.019524 -0.0068064 -0.01338 -0.005015 -0.0087881 0.0011092 -0.00010828 0.0069142 0.010494 0.016449 -0.0012189 -0.017821 0.0093455 -0.0053473 7.2399e-05 
но 0.016057 -0.013975 -0.0086831 -0.0023441 -0.0087244 -0.019186 -0.018557 0.0097474 -0.0088194 -0.0099926 -0.016925 -0.0068012 0.013146 0.010878 -0.01853 0.010777 -0.0059937 -0.01423 0.0029928 0.013042 -0.002492 0.015414 0.019819 0.015434 -0.019821 0.0030435 0.014968 0.011623 0.0082528 0.016949 -0.012659 -0.0081293 -0.00040254 0.0068433 -0.0036671 0.018655 -0.0095034 -0.016011 -0.0097289 -0.0088004 -0.019344 -0.014606 0.0045347 0.0016526 -0.012328 -0.015896 0.0027764 0.0099148 0.015659 0.017335 
их -0.0034315 -0.015428 -0.0076591 0.012571 0.011088 0.01821 0.019229 0.0098344 0.0030108 -0.0078924 -0.00054594 0.00061454 -0.0058114 -0.0023206 0.016931 0.0078923 0.016891 0.0039542 0.0016284 0.01942 -0.0046781 0.017563 -0.01358 0.0097728 -0.0084139 0.0024605 0.0051843 -0.013839 0.0134 -0.017588 -0.0041921 0.0095436 0.00069621 -0.0057698 0.017283 0.012493 0.0071977 0.0067786 0.0040865 0.017409 -0.0013768 -0.0057603 -0.019831 0.01359 0.0053723 0.007827 -0.019026 -0.0010072 -0.0050285 0.0041882 
газов -0.012849 0.015306 0.01211 -0.0095278 -0.01426 -0.015485 -0.011208 -0.01673 0.0022655 0.0005122 0.0082495 0.014407 0.003348 0.017389 -0.0024677 -0.0078964 -0.012594 0.009884 -0.00066098 -0.018816 -0.0052298 -0.019589 0.0065802 -0.0058918 -0.017304 0.0016104 0.0086342 -0.017966 0.01743 0.014785 -0.014781 0.0076269 -0.011027 0.0093154 0.013174 0.0076482 0.014352 -0.012802 -0.0038416 -0.0092827 -0.012374 -0.0073243 0.0015376 -0.0063547 -0.016661 0.00066017 -0.010794 0.019439 0.0075753 -0.017299 
бы -0.0065392 0.00087472 -0.016737 -0.018215 0.0039737 0.014989 0.012815 0.01804 0.019515 0.012123 -0.01511 0.0001906 -0.013445 -0.014613 0.019825 -0.002284 -0.00088446 -0.015222 0.017429 -4.9362e-05 0.011046 -0.015877 0.011186 0.0068638 0.00083621 0.01907 -0.0050221 -0.0059895 -0.014997 -0.005613 -0.013678 -0.00058344 0.014408 -0.01555 0.0007972 -0.013761 0.0065333 -0.015938 -6.3933e-06 0.0092833 0.0063645 0.0093193 -0.014905 0.0061449 0.01778 0.013671 0.015123 0.0029917 0.01265 0.011293 
со -0.012681 0.019592 -0.011024 0.01134 0.011387 -0.012906 0.0082805 -0.014261 -0.0011513 0.0064229 -0.0086165 -0.0058723 0.011258 -0.012378 -0.010566 0.0074172 0.0032435 -0.0049382 -0.0076978 -0.013516 -0.017749 0.0076371 -0.0043699 -0.004657 0.012724 -0.015306 0.0022411 0.017095 -0.0052467 0.016861 -0.01814 -0.012444 0.0050484 0.0020533 -0.019826 -0.014806 0.017585 -0.015008 0.0065172 0.0026018 -0.0068903 0.0088503 0.012977 0.012544 0.0026698 0.012401 0.014124 -0.011423 -0.0049509 -0.0087157 
будут 0.0042904 -0.001418 0.0020127 -0.013694 -0.011747 0.0087296 -0.014025 0.012619 0.017531 0.013253 0.003022 0.0081167 -0.016838 -0.019006 -0.018697 0.0023812 -0.015086 0.012714 -0.017769 -0.015756 -0.018756 -0.016299 0.0075308 -0.014422 -0.016716 0.0084506 -0.019109 0.0032127 0.017797 0.0056173 -0.011101 -0.0089028 -0.0090687 -0.00052072 -0.018113 -0.0053154 0.011817 0.0019148 0.019518 0.018852 0.014494 0.006556 0.0054413 -0.0087998 0.017135 0.015894 0.005942 -0.016498 -0.0043589 0.0066776 
выйти 0.0046608 -0.010039 0.0091821 -0.0020278 0.0012341 -0.01061 -0.0067563 0.017675 -0.0018318 -0.00068585 -0.013368 -0.0013447 -0.0062213 0.0027979 -0.017627 0.00974 -0.0058529 0.013466 -0.0045359 -0.014655 0.0094094 -0.013173 0.0048824 0.0097991 -0.0069846 -0.012636 -0.008544 0.019107 0.015337 -0.0071042 0.014873 -0.010253 -0.00095006 -0.0034391 0.010949 0.015798 0.019092 -0.010491 -0.0023535 -0.0060133 0.014886 0.0072797 -0.006847 -0.018015 -0.0014219 0.0047073 0.015346 -0.001856 0.012551 -0.0096573 
все -0.018165 -0.012832 0.0065451 -0.010803 0.00052932 0.00022606 0.012833 -0.013533 0.018821 -0.018792 0.0039954 -0.0044106 0.015479 0.019815 0.0039582 0.012625 -0.011159 -0.012711 0.0082956 0.013352 0.0070651 -0.0034367 -0.015116 0.0073414 -0.0074331 0.0057442 -0.014674 -0.012949 -0.019059 -0.0078629 0.018613 0.0026975 0.01353 0.012567 -0.018245 -0.011764 -0.0048085 0.0020532 0.013287 0.018763 -0.01636 0.00958 0.010109 0.019106 0.016031 -0.019523 -0.0072154 0.00097661 -0.012603 -0.012563 
Соединенные 0.0026837 -0.013176 0.007234 0.014603 0.010537 0.013119 -0.010198 -0.0079244 0.0052761 0.0097593 0.0044779 -0.0098489 0.011077 0.0055087 -0.0042348 -0.0080599 0.019776 0.004557 -0.010627 -0.019835 -0.0079883 -0.010951 0.01967 -0.011997 -0.0049446 0.0051993 -0.014674 -0.0068781 0.007237 0.016456 0.0093703 -0.0185 0.0098105 0.0059513 -0.011445 0.011713 -0.0015028 -0.018039 0.016696 0.0035842 0.0076114 -0.0055088 0.0097667 0.018131 0.011223 -0.019943 -0.019411 -0.0011623 -0.012752 0.016111 
изменения 0.0038247 -0.016856 -0.004179 0.017261 -0.01439 0.017583 -0.0078802 -0.017473 -0.0027963 0.014877 0.018989 -0.012707 -0.013685 0.0033617 0.0030524 -0.0053844 -0.019429 0.004135 -0.01487 -0.018886 -0.0020587 0.0044096 -0.010248 0.010861 -0.010758 0.0171 0.0076746 -0.013476 -0.0025741 -0.016002 -0.0017315 -0.00054704 0.0070752 -0.018908 -0.019095 -0.0093287 -0.015721 0.011736 -0.0040641 0.00025369 -0.006043 -0.0015851 -0.013409 -0.010889 0.0033487 0.0015181 -0.0096015 -0.01422 0.019944 -0.0013808 
выбросов -0.0066791 0.010019 0.0029864 -0.016527 -0.019363 0.015488 0.009098 0.015833 0.011051 -0.010156 0.013367 -0.0077367 -0.001877 -0.0047564 0.017538 -0.0096215 -0.015971 -0.015756 0.0033105 0.0071391 -0.015382 -0.016549 0.011742 0.019319 0.0097997 -0.010196 -0.013313 0.017129 0.016876 0.0039309 -0.0074782 -0.0061953 0.00034385 0.017238 -0.0098968 0.0037976 0.00828 0.01146 0.016255 -0.014514 0.0052488 0.017819 -0.010949 -0.0036539 0.0051501 -0.015466 -0.0098042 0.0060087 0.011463 0.014901 
вывести -0.0041297 0.0040056 0.0046324 0.0059302 0.0086883 0.011537 -0.017689 -0.015177 -0.014002 -0.019584 0.0042965 -0.015657 0.017831 -0.015993 -0.0064787 -0.0034715 -0.010585 0.0081477 -0.0093608 -0.015073 0.010974 0.016146 0.014408 0.013479 -0.018239 0.019173 -0.00042219 0.010475 -0.0023082 -0.015943 -0.0038078 -0.0037427 0.0051395 0.01028 -0.010355 0.015957 0.018075 -0.0048775 -0.003135 0.018744 -0.011873 -0.0087285 -0.0037686 0.016948 0.0013757 0.011318 -0.0041757 0.018399 -0.012629 0.01546 
Штаты 0.004448 0.0071935 -0.013462 -0.0088011 0.0020226 -0.001101 0.012533 0.012131 0.0051922 -0.00022554 -0.012736 -0.0016164 0.012759 0.011856 0.015762 0.00079165 -0.0039598 -0.019759 -0.0093106 0.0014587 -0.0069341 0.0020912 0.014909 0.0077582 0.0033145 0.0087721 0.0019071 0.017646 -0.0057763 -0.015378 0.0080772 -0.0087867 0.00875 0.01996 -0.015267 -0.0026767 0.016318 0.017131 -0.012221 -0.0052524 0.0020193 -0.015559 0.013305 -0.015022 0.01893 -0.013263 -0.012836 0.014039 -0.012851 -0.012075 
если 0.0017457 -0.011115 0.014202 0.0081629 0.018883 -0.014824 0.0059378 -0.013342 -0.011197 0.0089135 0.01909 -0.0094445 0.008321 -0.015512 0.005031 0.0015941 -0.011141 0.011357 0.016311 -0.013601 0.011378 -0.016855 0.0030787 -0.019009 -0.018399 -0.0017319 0.011749 -0.0077138 0.013034 -0.0063164 2.9252e-05 -0.0053166 -0.00097313 -0.012261 -0.0066124 0.013492 -0.0092536 -0.0096812 -0.01581 -0.0045199 -0.0044031 -0.0070991 0.0023153 0.0033574 -0.011625 -0.019733 -0.0048246 0.012121 -0.0080093 0.0014183 
сообщает -0.0075943 0.018083 0.00069336 -0.0050416 -0.018316 -0.016008 -0.0048092 0.011334 0.010516 -0.0026662 0.0083489 0.011361 0.0041978 0.0034352 0.014833 -0.01227 0.019315 -0.0012429 -0.019559 0.003839 -0.0080594 -0.0035576 -0.0074713 0.012589 -0.0028282 0.0074908 0.010161 0.0091274 -0.0026699 0.0051953 -0.0038988 0.016481 -0.011704 -0.017585 -0.010793 -0.016418 0.010951 -0.0013479 0.015087 0.0095407 -0.01559 -0.0060625 -0.0044524 -0.017876 -0.00052052 0.016616 0.014963 -0.019666 -0.013618 -0.0076172 
ходе 5.4303e-05 -0.0049152 0.017338 -0.0135 0.015425 -0.0098094 0.012058 -0.0060668 0.016453 -0.019572 0.015704 0.0090262 0.010697 -0.0016392 0.0087329 0.017345 -0.018434 0.019872 0.017697 0.00038137 -0.0064729 0.017847 0.01941 0.00092724 0.01712 0.0070054 0.00073225 -0.010394 -0.010152 -0.016305 -0.017292 0.0051977 -0.014923 0.0189 -0.016907 -0.0055882 -0.0014586 -0.011623 0.0072179 0.011868 0.012386 -0.0078651 -0.01141 -0.0014101 0.0094469 0.015967 -0.0025598 -0.019077 -0.0034855 0.0048802 
а -0.0017592 -0.0030807 -0.003474 -0.0022138 0.0051 0.004873 -0.018174 -0.0082266 0.0049996 0.010735 0.014423 0.012887 0.013934 -0.011007 -0.0099775 -0.015042 0.018081 0.0087073 -0.015194 -0.013536 -0.0018316 -0.005347 -0.019976 -0.014329 0.018989 -0.016801 0.017913 0.0012016 0.012932 0.0010961 0.0005382 0.014428 0.011342 0.0074212 0.015835 0.0012561 0.014353 0.0075894 0.018551 0.018168 0.0059864 0.018428 0.013575 -0.01518 0.0021807 -0.0021684 -0.0062513 -0.0034444 0.019827 0.019487 
во 0.0085793 -0.0063221 -0.0023792 0.0067526 0.013268 0.019472 0.00013958 -0.018628 0.017719 0.017086 0.0087595 0.0068844 0.0061385 0.015673 0.0001095 -0.0033053 0.012447 -0.0047836 0.015294 -0.0060028 0.015745 -0.015062 -0.018158 0.011923 -0.017796 0.00080166 -0.010914 -0.019961 -0.017189 0.0040741 0.005658 -0.0046222 0.018823 0.017991 -0.013883 -0.00051371 0.0012617 0.015646 -0.018855 0.013546 0.0098556 -0.016394 -0.015104 -0.0050311 -0.0090211 -0.011524 0.0013745 0.0021401 0.0083512 -0.012152 
который -0.014346 0.0069025 -0.0011638 0.014674 -0.0025664 -0.017661 -0.017624 0.011945 -0.0070477 -0.017381 0.019114 0.016697 -0.010734 0.017822 -0.019462 -0.014502 0.0010573 0.0087669 -0.00098518 0.015792 -0.01007 -0.017959 -0.0035101 0.0154 -0.0016769 -0.018396 -0.00031349 -0.014237 -0.006201 -0.0012467 -0.00086817 -0.019337 0.014246 0.0017821 -0.0069355 0.015727 -0.010778 0.015042 0.00079578 0.008515 -0.019628 0.0097803 0.012501 -0.012937 0.0033226 -0.016879 0.013417 -0.011111 -0.016019 0.016963 
того, 0.0030282 -0.00834 0.0066717 0.0055563 0.0050775 0.011392 -0.019607 0.017981 -0.0024132 -0.0025085 0.0027994 -0.0035088 -0.00048719 -0.001103 0.0044666 0.0077565 0.0063985 0.0071461 0.0117 -0.0030305 0.01354 0.010943 0.017974 -0.0025525 0.0079229 0.0034033 0.0086919 -0.014237 0.0035618 -0.010599 0.003067 0.012402 0.016035 0.015123 0.015091 -0.00087957 -0.013942 -0.0031519 0.0116 -0.0081983 0.018173 -0.012575 0.017541 0.00049019 -0.016374 0.010159 0.0042408 0.0057327 -0.012287 -0.018522 
выбросы 0.010552 0.003986 -0.0091958 -0.014006 -0.010929 0.0086006 -0.0014922 -0.00059744 -0.013477 -0.0032816 0.0048894 0.015661 0.0052775 0.0053258 0.0038151 -0.012638 -0.0023224 0.0040159 0.01912 -0.0063639 -0.0051599 -0.019102 0.013939 -0.0057367 -0.0060523 -0.019859 -0.0037578 -0.0061028 0.017525 0.013397 0.010616 0.0087939 -0.0013093 0.0014901 0.0093602 0.010848 0.0095926 0.01618 -0.019953 -0.016451 0.0056064 0.018291 -0.017651 0.011257 0.0059497 0.011827 0.012015 0.0067559 0.013309 0.017945 
словам -0.007838 -0.013003 0.0011083 0.018786 -0.0031232 0.0062792 0.010222 0.01659 0.012917 0.0069674 0.012354 0.013174 0.013274 -0.0025784 0.0042193 0.0048487 0.0001826 0.0010535 -0.015889 -0.014662 0.0041631 -0.0077956 -0.0045411 -0.010728 -0.01399 -0.00087196 0.014435 -0.0040401 -0.019221 -0.017081 0.006897 0.0020783 0.00351 -0.01501 -0.018163 -0.0024789 0.010242 0.01278 0.016381 0.0014643 -0.0058452 -0.00010551 0.017779 -0.016967 -0.0064925 -0.016188 0.0088169 -0.010879 0.0084355 0.0095036 
1 0.019362 -0.01009 0.0094239 0.016474 0.010866 -0.0076632 0.0085936 0.014478 0.0022192 0.0036427 -0.0083332 0.019506 0.011136 -0.012074 0.017508 0.0029549 -0.01162 0.016127 -0.0030439 0.0055649 0.014539 -0.017416 0.013156 0.00060764 0.006632 -0.010409 0.0099817 0.010077 0.0086579 -0.014357 0.00062681 -0.0011674 0.010906 0.01938 0.0094294 0.012435 0.0028489 -0.0064172 -0.012803 -0.012092 -0.00017376 0.016356 0.0058396 -0.016962 0.014089 -0.010846 0.017147 0.013361 0.0095898 0.0030362 
глава -0.0014845 0.0077507 0.0044886 0.011238 0.011304 -0.016463 0.018285 -0.0079885 -0.0047275 -0.013577 -0.0029463 -0.016527 0.01503 0.0012134 -0.0080697 0.016289 -0.012963 0.0013107 0.003065 -0.017985 0.011127 -0.009231 -0.00088984 -0.016656 0.011883 -0.0062556 0.0023859 0.0052691 0.0041485 -0.014509 0.016115 -0.018375 0.0051064 -0.011127 0.014424 -0.014235 0.0023212 -0.0056801 -0.0071722 -0.012456 -0.0037875 -0.014492 0.010896 0.007574 0.019872 0.010838 -0.012545 -0.010958 0.0026927 -0.00075954 
решения -0.0041678 0.017475 -0.0088308 -0.004677 -0.010382 0.01129 -0.012039 0.019015 0.0081858 -0.017111 0.0071992 -0.010242 -0.01691 0.001968 -0.0056025 -0.012709 0.01791 -0.016717 0.0060524 0.01761 -0.0063194 -0.013573 -0.016128 0.01423 0.013046 0.01468 0.005788 -0.019439 0.0098531 -0.0073993 0.017192 -0.014576 -0.019812 -0.0039763 -0.013646 -0.00065533 -0.0042695 0.0062392 -0.01253 0.015388 0.01194 -0.017008 -0.015941 -0.015525 0.014919 0.019321 0.014832 -0.01107 -0.0085358 -0.0069385 
среды -0.015988 0.00024517 -0.0087125 0.019697 -0.011206 -0.0025142 0.013831 0.0056627 -0.009949 -0.017147 0.013424 -0.0097283 -0.015828 0.002683 2.2596e-05 -0.014793 0.0030566 -0.0080071 0.0054246 -0.0056315 -0.010915 -0.014465 0.0096238 -0.014461 -0.018266 0.00067044 0.016854 -0.010303 -0.018662 0.010157 0.017602 -0.019466 -0.0035142 0.00067224 0.0078558 0.0098853 0.015796 0.0030224 -0.013567 -0.00036961 0.010077 0.019112 -0.0038995 -0.0055664 0.0096365 0.0010512 -0.0021212 0.019604 -0.015205 -0.0035696 
он. 0.0046961 0.017473 0.016621 0.01347 0.015865 -0.017673 -1.4978e-05 -0.010822 0.013243 0.00045006 -0.0067069 0.011253 -0.019124 0.019772 -0.005067 0.0089337 -0.004444 0.0037901 0.017911 -0.0017896 -0.016643 -0.019112 0.0014543 -0.017844 -0.0096243 0.013096 -0.0102 0.017871 0.0091208 -0.012766 -0.01758 0.018297 -0.0101 0.017112 0.0045724 0.0012048 -0.0069615 -0.016791 -0.016642 0.01298 -4.354e-05 0.012655 -0.014204 -0.0095553 -0.011621 -0.0019291 -0.00044224 0.0097293 0.019535 0.0034559 
или -0.0024715 -0.0057194 9.0863e-05 0.018476 0.014846 0.0021275 -0.0055349 0.011408 -0.019997 0.0094095 0.010486 0.019678 -0.01264 0.0040448 -0.0066064 0.019026 -0.0065756 -0.0075837 0.016694 -0.00039101 0.016355 -0.0052719 -0.0028299 0.012464 0.0081969 0.017765 0.017236 -0.010025 -0.00341 5.5556e-05 -0.00017842 -0.014898 -0.005519 0.0028735 0.00022808 0.0187 -0.0028628 0.0044682 -0.019859 -0.0012468 -0.017018 0.017069 0.00058838 0.018299 0.0029672 0.0044935 0.0072947 -0.019697 0.014937 -0.01644 
сократить 0.0059205 -0.012509 0.0057579 -0.012775 -0.019271 0.016359 0.015215 0.0090609 0.014983 -0.0046902 -0.019627 -0.012045 -0.0014275 -0.0027479 -0.0024127 -0.010896 0.017311 -0.0046421 0.0077103 0.0090067 -0.019485 0.0046829 0.019777 -0.0094687 -0.0052982 -0.013075 -0.014207 0.0080824 -0.007573 0.011663 0.012837 0.0097238 0.012432 0.0078327 -0.011882 0.017611 -0.0063027 0.016363 -0.0037491 -0.016258 0.012954 0.0061365 -0.00193 0.019059 0.012422 -0.0053275 -0.0020757 -0.011277 0.011871 -0.017567 
будущее, -0.0075791 0.017506 0.015734 -0.018146 0.01678 0.013798 -0.00050772 -0.002553 0.0019823 0.0072492 -0.0024194 -0.016895 -0.01827 -0.0061959 -0.0033353 -0.0023966 9.0391e-05 -0.0060725 0.01608 -0.012094 -0.016089 0.0078813 -0.016843 0.0065102 0.0185 0.012667 0.0054888 -0.0054479 0.0048872 -0.0034203 -0.008839 -0.0044993 -0.009217 0.014808 0.017978 -0.00496 -0.0093077 0.010096 0.006407 0.017536 0.012405 0.013709 0.0061841 -0.014537 -0.011415 0.012145 -0.0085378 -0.017298 -0.00063887 0.010971 
предвыборной 0.013888 -0.013315 -0.00050344 -0.0030959 0.00059238 -0.0027251 -0.011526 -0.0011677 -0.0022953 0.014087 0.01272 0.011872 0.009592 -0.0083139 -0.015018 -0.015877 0.019069 0.0072773 -0.014848 -0.0075414 0.01287 -0.019793 -0.014056 0.010451 0.0021719 0.013775 -0.0094234 -0.00070056 -0.0075601 0.0014842 -0.018423 -0.011908 -0.0085504 -0.015531 0.01634 -0.00112 -0.0072846 -0.019695 -0.012718 0.0023438 -0.013823 0.017169 -0.00055227 -0.017618 0.0049297 0.013125 -0.015281 0.013327 0.002636 -0.016008 
свою 0.0043059 0.015997 -0.0068905 -5.6333e-05 0.008077 0.018939 -0.019713 0.015484 0.013296 0.010489 -0.0097363 -0.012361 0.017464 0.0050363 -0.015115 -0.018095 0.002956 0.006399 0.0091914 -0.015882 0.0058779 -0.0061692 -0.013266 0.0020929 0.014269 -0.0045928 0.012155 0.0032941 0.0050687 -0.0023243 -0.00067849 0.019262 0.01141 -0.0071718 -0.012975 0.0057175 -0.0063996 0.012852 0.014985 -0.0047269 0.010562 0.016291 0.012451 -0.013671 0.013517 -0.0095776 0.012261 0.01971 -0.0052792 0.0096862 
кампании 0.0081459 0.014896 -0.019395 0.0096031 0.01767 -0.00083369 0.010806 -0.0076259 -0.0041269 -0.010713 0.018622 0.010864 0.0016707 0.0032184 0.018659 0.0076074 0.0080512 0.0121 0.011191 0.0016037 0.0057691 0.0038129 -0.0036637 0.018378 -0.016347 0.0099614 -0.0059057 0.0022123 -0.014099 0.0021316 -0.0050186 -0.00829 0.012048 -0.013892 0.015599 0.013325 -0.00086318 0.019276 0.001441 0.0043903 -0.014446 0.0072284 -0.0033448 0.015188 -0.0093621 -0.00015863 -0.014528 0.0084625 -0.0070426 -0.012425 
том, -0.0044422 0.0069699 -0.0093113 0.019516 0.0013573 -0.0094777 0.018553 -0.010234 -0.01192 0.016374 -0.0092141 0.0058485 0.010271 -0.01378 0.010419 0.018753 -0.017301 0.012106 0.0057788 0.015689 -0.00091244 -0.012637 0.019522 0.0078802 -0.018687 0.0088855 -0.011236 0.0084552 -0.00024604 0.0090302 0.0044735 0.0047263 0.003953 -0.015905 -0.015768 0.010177 0.0011503 -0.018441 -0.011412 -0.017737 -0.015504 -0.00077595 -0.01608 0.017715 -0.010968 -0.017334 0.018412 -0.0052252 -0.019973 -0.0084249 
передает -0.015624 0.01695 -0.0071005 -0.019656 0.016492 -0.018341 -0.0039977 0.0081537 0.0074799 0.011323 -0.0077051 0.006736 -0.0028196 -0.018827 -0.013101 -0.00082452 -0.011186 0.010023 0.0003995 -0.010142 0.0013244 -0.013883 0.0061167 -0.018572 -0.012413 0.0042923 0.0073938 0.0093869 -0.0034113 -0.0033221 -0.013165 -0.012241 -0.015606 0.005782 0.003139 0.0037861 0.0088571 0.011897 -0.0079381 0.00050663 -0.0038676 0.0088933 0.008801 0.0069933 0.0084981 0.0069527 -0.010437 0.017695 -0.016592 0.0078193 
является 0.0097919 -0.0060538 -0.0096192 -0.013322 -0.014237 -0.0061455 -0.015638 -0.0074305 0.0065769 0.015912 0.0022267 0.0023934 -0.012015 0.0017247 0.018365 -0.0058724 -0.0081148 0.019781 -0.015627 -0.0090513 -0.014595 -0.0034884 0.0041598 -0.011698 0.0023564 0.0067168 -0.0019531 0.019597 -0.017716 -0.0067318 -0.01207 -0.0052221 0.019071 -0.019724 -0.010272 -0.012777 -0.0071398 -0.0067247 -0.011735 0.016591 -0.00037122 0.0091775 0.0082658 0.018237 -0.012351 -0.0041714 0.0076845 0.013387 0.00449 0.015172 
кто 0.0024301 -0.014413 -0.0023918 -0.018508 -0.014414 -0.010233 0.015541 -0.010836 0.0194 -0.019936 0.0044971 0.012127 0.0060347 -0.01397 -0.0019744 -0.0061819 -0.018439 0.013654 -0.0096915 0.0047114 -0.0067629 -0.013705 0.016542 0.019751 -0.0011249 0.013439 0.015405 -0.0048488 0.017043 0.018945 0.014201 -0.0024027 0.010902 -0.017428 0.01877 -0.011102 -0.019045 0.014262 -0.00023914 -0.0088437 0.017915 0.018524 -0.0096083 0.0093492 -0.016795 -0.010986 0.0091075 -0.013348 0.0085438 0.012458 
Белом -0.0061148 -0.0011356 -0.0041224 0.014356 -0.017597 0.006736 -0.019958 0.0026465 0.0026607 0.018579 0.01425 0.018425 -0.01438 -0.016423 0.0052862 0.019532 0.017864 -0.0156 0.019029 -0.015956 0.0009129 0.012812 0.0020244 0.0020434 0.0075361 -0.013104 0.0060835 0.015819 -0.0040067 0.019728 0.012691 -0.0043883 -0.017637 -0.012547 -0.016762 -8.5699e-06 -0.0017955 -0.0010234 0.006977 0.0085485 0.015749 0.0082012 -0.0069016 -0.0071468 -0.0074153 -0.01097 -0.0067311 -0.017933 0.018438 -0.016401 
Германии -0.0089088 0.0012088 -0.011354 -0.014014 -0.010329 0.0081462 0.00021125 -0.0092845 0.0081231 0.0013194 0.0060452 0.01968 0.019669 0.0054373 0.017434 0.011153 0.016473 -0.01884 -0.0074154 -0.0024009 0.019348 0.012907 -4.0466e-05 0.0062977 -0.0077886 0.019573 -0.012831 0.016845 0.0049881 0.0056159 -0.010569 -0.016495 -0.0057791 0.00062198 -0.0019747 -0.0047751 -0.013597 0.0016452 0.0092472 0.019348 -0.0082028 0.016737 -0.015573 0.016599 0.0055967 -0.0043488 -0.0091034 -0.0095379 0.0035448 0.010364 
Ангела -0.0074812 -0.0015625 7.9514e-06 0.0028952 -0.017792 0.0134 -0.0025618 -0.0063091 -0.019946 -0.014108 0.006778 0.0053497 0.003132 0.013985 0.015915 0.015306 0.012834 0.014614 -0.015715 -0.0017326 0.016987 -9.4074e-05 0.007801 -0.017639 -0.012662 0.016284 -0.0025418 0.0020189 -0.0014118 -0.019087 0.0096437 0.0012552 0.011909 -0.0073508 -0.00065134 0.011789 0.0090577 0.0198 -0.016159 0.016948 -0.010771 0.019306 -0.0062602 -0.001617 -0.012615 0.0033957 0.018681 -0.0038862 0.0091524 -0.0077976 
климатическое -0.0020326 0.0011623 0.0037775 0.014334 -0.010653 0.007699 0.0085704 -0.00086069 -0.0040363 -0.010775 0.006246 0.0061636 -0.011168 0.009475 -0.0011825 0.019737 -0.01044 -0.016017 0.013925 -0.0022206 -0.002349 -0.010018 -0.0028718 -2.405e-05 0.010936 0.005377 0.0086436 0.014487 -0.0068987 -0.012171 -0.0037403 -0.0047892 0.0065606 -0.0034329 0.014837 -0.0040965 -0.0091655 0.0069148 0.008068 0.0024676 0.018006 0.01856 0.018596 0.019148 -0.013419 -0.002314 -0.0043293 0.0014697 0.0048761 0.014259 
выход -0.012111 0.012353 -0.0075806 0.012249 -0.011439 -0.018599 -0.0012491 -0.0032706 0.015983 0.019232 -0.0042022 -0.019499 0.0047035 -0.014358 -0.014026 -0.0099727 -0.012647 -0.0045642 -0.0045345 0.011684 -0.0019174 0.011862 -0.0069714 -0.014431 0.015552 0.012133 0.019035 -0.0087608 0.012149 -0.013106 -0.0092466 0.018102 0.0079041 -0.013424 -0.012352 0.013979 0.019806 0.014326 -0.01457 0.0058728 -0.00045828 0.016243 0.010269 -0.01176 -0.016272 0.0017569 -0.013303 -0.0028169 0.016369 0.011105 
должны -0.0067985 -0.01493 -0.0035659 0.012932 0.0033284 0.011954 -0.019273 0.0079217 0.0025262 -0.017824 -0.016161 -0.00974 0.0010311 0.0060255 0.016219 0.018587 0.011815 0.017051 -0.016791 -0.01337 -0.0056997 -0.0093629 -0.0021453 -0.019488 -0.0017419 -0.013747 0.0033105 -0.0033755 -0.016608 -0.013189 0.010848 -0.0023224 0.0089644 0.015628 0.0045556 0.0092763 -0.01252 -0.004336 0.011517 -0.0017738 -0.00536 -0.011388 -0.0012401 0.017799 0.00041028 0.015487 0.01853 -0.010174 0.0038188 -0.0031384 
выразила -0.01355 -0.0035185 -0.019961 0.013595 -0.0032738 -0.0096552 0.014629 0.010451 -0.010525 0.0090345 0.013388 -0.012729 -0.0081353 -0.0072679 -0.012644 -0.0030208 -0.015285 -0.010322 0.00064433 0.010413 0.005032 -0.0035969 -0.0093895 0.0012099 0.0019072 -0.014637 0.00060375 0.014097 0.010535 -0.0030481 -0.0039807 -0.014175 -0.00076452 0.017782 -0.012853 -0.009368 0.0051803 -0.0049267 0.0031994 0.012458 0.0081207 0.019926 -0.0063747 -0.0073967 -0.00829 0.019884 -0.013167 -0.010754 0.0052961 -0.014502 
я 0.0059931 0.012726 0.018905 -0.0072752 -0.013553 0.0084862 0.012546 -0.0033591 -0.019363 -0.0089221 0.015061 0.017955 0.012581 0.0058885 -0.0041871 -0.014548 0.0031822 -0.011984 0.01389 0.004261 -0.0084952 0.0083734 -0.0050252 -0.0072565 0.00035868 -0.014564 -0.010413 -0.014959 -0.0094832 -0.0040446 -0.0079234 0.0024359 -0.010316 -0.0036696 0.0096951 -0.017146 -0.011456 -0.015784 0.019141 0.013001 -0.018725 -9.3064e-05 0.013164 0.00049788 0.0017195 -0.0081076 0.0014913 -0.0033672 -0.018928 -0.01627 
мест -0.016642 0.018629 0.00028632 0.010311 -0.016895 0.00076555 -0.00941 -0.012999 0.0053804 0.0037054 0.018488 0.0080868 0.0018812 -0.017589 -0.0069273 0.018081 0.008038 -0.0035975 0.0078324 0.017449 0.016308 0.018735 0.016657 0.0033321 0.015619 -0.0095706 0.018297 0.0040846 -0.01113 -0.0089142 0.019407 -0.0046401 0.0015783 0.0020702 0.01984 -0.0090411 0.017664 -0.013186 -0.015492 0.0042892 -0.012942 -0.0024254 0.012401 0.0083873 -0.004496 -0.015687 -0.015853 0.010838 -0.0082664 0.015296 
глобальное -0.010283 0.0052849 -0.0057888 0.01317 0.015492 0.012594 0.0089581 -0.011421 0.0054992 0.0026323 -0.0023297 -0.0044918 -0.0097537 -0.018426 -0.0048146 0.018156 0.00057193 -0.00073304 0.016432 -0.0126 -0.004921 -0.016548 -0.0026154 -0.018632 -0.010123 0.0070617 -0.0085145 0.0016117 0.0079839 0.019555 0.007051 0.00097766 0.0058035 -0.0023919 0.017794 -0.0052009 0.0014673 -0.018422 0.0033174 -0.018227 -0.017027 0.0014549 -0.0011076 0.015047 0.014658 0.0025946 0.0093791 -0.011302 -0.010546 -0.012564 
Белого -0.017458 -0.01612 -0.013301 -0.0033173 0.0047316 -0.0078493 -0.0027936 0.0068324 -0.0044263 0.019673 -0.0023446 0.0083725 -9.1378e-05 0.00071763 -0.01562 0.0049716 -0.012921 0.01167 0.0010212 0.014555 -0.018915 0.012571 0.013917 -0.011597 -0.018885 -0.0037963 -0.014985 0.0088099 0.0091167 -0.0078685 -0.016045 0.015421 0.012827 0.008545 0.0051898 -0.0039842 0.01953 0.0042609 0.011169 -0.017583 -0.019823 -0.0052755 -0.00013164 0.0069208 0.0077007 -0.0012012 0.013396 -0.0042693 -0.013792 0.0035212 
ссылкой 0.0097719 -0.0019886 -0.019494 -0.010302 0.014126 -0.0037584 -0.013989 -0.012821 0.0021807 -0.0098704 0.019789 0.011346 -0.013568 -0.014765 -0.015519 -0.013612 0.002162 -0.00057301 -0.014509 0.0040067 -0.0055447 -0.0023983 -0.0079602 0.0070073 0.0047616 -0.01728 -0.0081259 -0.006156 0.0054197 -0.0017262 0.016644 -0.014968 -0.0042186 0.0098837 -0.0051922 0.00070109 -0.0091324 -0.0088863 -0.017028 -0.0098568 0.0067011 0.015039 -0.0029049 0.0085543 0.01855 0.0090319 -0.0041553 0.0073672 0.017113 -0.014795 
сообщил -0.008291 -0.017717 0.019091 0.012734 0.0034243 0.00097587 -0.011004 0.0068203 0.0041529 0.0063892 0.0011641 0.0068199 0.013915 0.013534 -0.0058608 -0.016761 -0.0069437 -0.0088693 -0.018588 0.009805 0.0032269 -3.5455e-05 0.0033954 0.0041091 0.013431 -0.0095798 -0.014922 0.0071996 0.01074 0.015279 0.011054 -0.0042064 0.0062097 -0.0080177 -0.01451 -0.0084907 -0.0088649 0.015101 -0.012117 0.0020259 0.01376 -0.0026529 -0.0065014 -0.018996 -0.0080649 -0.015621 -0.018903 -0.0077367 -0.0078342 -0.0044793 
отметил, -0.010651 -0.003034 -0.014142 0.0016979 0.011763 0.018298 -0.0035493 -0.0072517 -0.0032487 -0.017827 -0.0084173 -0.017494 0.018688 0.0050202 -0.0032113 -0.0093502 -0.0058578 -0.013974 0.0061156 0.013099 0.0025523 0.019947 -0.0014655 0.0057331 0.0063361 -0.002662 -0.009829 -0.0021061 0.012374 0.015843 -0.011385 0.010446 0.0063312 -0.010491 -0.0020199 0.01841 0.014095 -0.015831 -0.018157 0.016825 0.002276 -0.0081951 -0.015611 0.015768 -0.013835 0.001121 -0.0074478 0.0058517 -0.016511 -0.016957 
своей 0.011821 0.0022577 -0.010642 0.00040559 0.0098061 0.0014455 0.01196 0.0039611 -0.010377 -0.015258 -0.019326 0.017518 0.00017339 0.018762 -0.015525 0.018131 0.013183 0.014065 -0.00066261 -0.019744 0.0005455 -0.00043496 0.006656 0.012246 -0.014177 -0.01312 0.014923 -0.0033597 -0.017073 0.016828 0.0085369 -0.0058337 0.0011139 0.0063593 0.018465 0.0099485 0.0070878 -0.013334 -0.0055261 -0.0036837 -0.009738 -0.0036498 0.0064217 -0.00031895 -0.0079735 0.0087098 0.013775 -0.013983 0.0086264 0.0032044 
изменениями -0.011569 -0.018303 0.0028769 0.0087827 0.011527 0.0042065 0.0011771 0.017362 -0.013585 -0.012613 0.0061471 -0.009282 -0.019202 0.010898 -0.011924 0.0038023 0.011218 -0.015212 -0.016617 0.0042558 0.0093396 0.019 -0.012836 0.015663 -0.0030182 -0.01232 0.019316 0.015453 0.017461 -0.0074015 -0.0064533 -0.011858 0.0034777 -0.013345 -0.016856 0.015207 0.0042108 -0.016165 0.0091351 -0.013722 0.019461 0.017667 -0.0087905 -0.0061055 -0.01071 -0.013288 -0.0075617 0.0077126 0.01024 0.015788 
выходят -0.018245 0.0034518 -0.0069716 -0.01709 0.015117 -0.011999 -0.013254 0.0040496 0.0043879 0.0034825 0.01557 0.019 0.010875 -0.011253 -0.00027259 0.0055114 -0.013938 0.006139 -0.0041032 -0.0015888 0.0089533 -0.011813 -0.0056827 0.0047177 -0.0067106 0.016297 0.013257 0.0083133 -0.0043243 0.0015433 0.0053297 0.016518 0.013249 -0.012612 0.016416 -0.0058502 0.0089541 0.00020892 -0.0030453 -0.00028235 -0.013264 0.014013 0.018875 -0.01882 0.003159 -0.010539 -0.0079459 0.015453 0.014519 -0.0026411 
углекислого 0.0077711 0.0074801 -0.0097626 -0.015321 -0.0001952 -0.017459 0.015267 0.013167 -0.00012507 0.010832 -0.0076737 -0.013948 -0.015691 -0.01134 0.0047565 0.0080271 -0.015406 0.018273 0.015853 0.0009138 0.014191 -0.0078495 0.014668 0.01163 -0.0084501 0.003623 0.016375 0.0044014 0.013219 -0.0097734 0.0010158 0.00016866 -0.018078 -0.011474 0.012962 -0.0037408 0.017538 0.0076034 0.0080409 -0.013315 -0.011153 -0.016819 -0.00042856 -0.0078761 -0.012729 -0.0070106 -0.016148 0.012853 0.013689 0.0084648 
изменением -0.015465 0.00099954 -0.016243 -0.018444 0.0072461 -0.0099629 0.0012549 0.019966 0.0082366 -0.0089788 -0.0035232 0.013573 0.011471 -0.0089875 0.019522 0.019524 -0.0051271 0.016927 -0.019046 0.0075884 0.018065 -0.0039772 -0.013113 0.017678 -0.018203 0.011877 0.013739 0.016905 0.006199 -0.0065746 0.017601 -0.0068381 -0.01878 -0.0046158 0.0075939 -0.0055321 -0.011064 0.013721 -0.0043113 -0.0019355 0.014432 -0.0038647 -0.013473 -0.0034587 -0.0016241 -0.0040844 0.012273 0.01679 0.00081838 -0.018517 
Соединенных -0.0097073 0.0019869 -0.010773 -0.011346 -0.013741 0.0098252 -0.0067244 -0.0096216 0.014877 0.0076688 -0.0091694 0.016488 0.0077426 0.017269 -0.0013385 0.0029911 0.010077 -0.015696 0.01626 -0.01677 -0.014068 0.011241 0.0094482 0.013872 -0.0093171 0.017577 -0.0021934 0.010057 -0.0048635 0.0091115 0.015669 -0.0054001 0.015931 0.014473 0.0070215 0.0091172 0.0043313 0.017311 -0.0061364 0.0019044 -0.0071505 -0.012271 -0.01772 0.017632 -0.010583 -0.0093263 0.015204 0.016568 -0.0085915 -0.0034897 
подчеркнул, -0.016107 -0.0158 -0.017436 0.0074594 -0.010998 0.0062879 0.018747 -0.014981 -0.0093329 -0.0040256 0.0048554 -0.011546 -0.011941 0.0068391 0.018507 -0.0085286 -0.010803 0.0060103 -0.0078036 0.018217 0.0043082 -0.014855 0.010834 -0.0077879 -0.0021126 -0.0041342 0.017889 0.010628 -0.00065347 0.013229 0.016838 -0.0090106 -0.017139 0.00059858 0.0029069 0.0016039 -0.018314 0.00050268 -0.013156 0.00013789 0.018275 0.00055192 0.0077183 0.0016095 -0.0074942 0.012138 6.5827e-05 -0.009622 -0.0059634 0.013385 
сожаление 0.0084668 -0.002232 0.014579 0.01989 0.005192 -0.017975 -0.01247 0.014 0.011995 0.0085052 -0.0065888 -0.015062 -0.014947 -0.0052925 -0.01799 0.0037475 -0.0076856 0.019801 0.013096 0.017483 -0.0029417 -0.0050245 0.014691 0.019396 0.0052554 0.0050402 0.0039843 0.003092 -0.0064387 -0.013292 -0.004872 0.0016582 -0.016165 0.0083355 -0.014815 -0.010387 -0.006127 0.010626 -0.010998 -0.0033925 -0.018703 -0.018792 -0.019395 0.0019587 0.0093811 0.013515 0.018753 -0.0065264 0.0034192 -0.018285 
до 0.012634 0.0015918 0.013752 0.0082433 -0.0067048 0.011718 -0.011885 0.016668 -0.017982 0.0080476 0.0088898 0.018349 -0.011295 0.0099236 0.011682 -0.0022684 0.0022107 0.018308 -0.010926 0.0033393 0.0041995 -0.0097345 -0.010587 0.015779 -0.0022228 0.0053142 0.0014541 -0.01381 -0.014853 -0.019183 -0.012408 -0.0066275 0.013199 -0.010359 0.014022 -0.0099373 -0.0092558 -0.0022182 -0.0019333 -0.012847 0.016672 -0.014515 0.0083673 -0.0103 -0.018953 0.017135 0.015109 0.0044041 0.0066072 -2.3918e-06 
охране 0.0014531 -0.013463 -0.012019 -0.01955 -0.0077383 -0.017029 -0.011761 0.012895 -0.00714 -0.01442 0.019529 0.014155 -0.015369 -0.015957 -0.017887 0.006933 -0.0082985 -0.00019325 0.014788 -0.0016923 0.0059046 0.0097671 -0.00052498 -0.013244 0.0074277 0.016351 0.014488 0.011097 0.019428 -0.00091354 0.0042752 -0.013057 -0.0019891 -0.0012369 0.0043133 0.0009479 -0.0035039 0.0026772 0.0066387 0.0098322 0.0061778 -0.010405 -0.015107 0.0073174 0.0058133 0.017989 0.0026695 0.014137 0.019379 0.018911 
Париже -0.012931 0.019236 -0.017641 0.0091942 -0.015581 0.0094715 -0.0046773 -0.015745 0.013599 -0.006625 0.016468 0.003192 0.016659 -0.016904 -0.014527 0.01988 -0.0076432 0.010333 -0.017658 0.0033635 -0.017773 -0.016608 -0.017879 -0.011114 -0.010031 0.0062431 -0.01007 -0.0030497 -0.00060434 -0.017623 -0.019078 0.01741 -0.013827 -0.00047849 0.01616 -0.017825 -0.0080348 -0.0065691 0.010908 -0.0060569 -0.014766 0.0027001 0.0039308 -0.017554 0.0086711 0.009578 0.018121 -0.00047146 -0.012927 0.014838 
принял -0.00053106 0.012947 -0.011872 0.0015665 -0.012945 0.012216 -0.013573 -0.010766 -0.0045745 0.018603 -0.0074511 -0.006578 -0.017467 -0.011287 -0.0062907 0.0070622 0.0080013 -0.0069251 -0.010048 -0.011502 -0.012408 0.001756 0.012063 0.015258 0.014022 -0.0055854 -0.0044573 0.0084152 -0.012422 -0.0085834 -0.0044315 0.0064807 -0.0073192 -0.0092661 -0.010985 0.017514 0.0034805 0.0075372 -0.011615 0.014499 0.010627 0.016771 0.012293 0.018663 0.0056398 0.010925 -0.011204 0.013292 -0.014583 -0.0010958 
стран 0.0032943 0.0069451 0.0026914 -0.011091 -0.019578 0.0005803 -0.0028181 0.0012069 -0.01125 0.019308 0.0020323 -0.019318 -0.0046264 -0.0090077 -0.0040053 0.0098375 0.00062882 0.019463 -0.0049598 0.0060611 -0.012241 -0.0073599 0.0039323 0.016547 -0.0056967 -0.0053851 -0.0024156 0.0010572 -0.0096733 0.0073119 0.010225 0.015278 -0.0047875 -0.0043963 -0.012789 0.0072004 -0.015782 0.00079178 0.006273 0.00073879 0.0029132 0.0094817 0.018529 0.0077327 0.0094853 0.001703 0.017517 0.016343 0.0097431 0.0052458 
ранее -0.0026434 0.01232 -0.011017 0.0059501 -0.0090478 0.0088768 -0.014319 0.0088103 -0.0087606 0.0035391 -0.0070861 0.01416 0.011142 0.0090401 -0.012964 0.0067447 0.0085351 -0.005615 0.01693 -0.002661 0.011522 0.0054745 0.0048632 -0.01938 -0.018401 0.009984 -0.017932 -0.0079445 0.01524 -0.01187 -0.0071452 -0.0042598 0.019132 0.0043307 -0.0057668 -0.0045736 0.015377 -0.018768 0.0067162 -0.01531 0.016391 -0.0011503 0.01003 0.0089137 0.016185 0.0081174 0.012001 0.017988 0.0070236 0.014985 
говорится -0.00073398 -0.019962 0.0096433 0.014006 0.01022 -0.0018498 -0.011723 -0.0033013 0.0025701 0.010928 0.019927 5.3234e-05 0.0087441 -0.0096761 0.0071581 0.014927 0.0072008 0.00052503 -0.019996 0.014342 0.0073763 0.0042682 -0.00056867 0.015982 0.012298 0.0042657 0.019023 -0.0081343 -0.019702 -0.018379 -0.0076039 0.0024781 -0.0011913 -0.015127 -0.0054415 -0.00058731 -0.0013142 -0.0042627 0.01437 -0.011267 -0.00064476 -0.00082615 -0.0027417 -0.017479 -0.019549 -0.017816 -0.016303 0.0068685 0.004052 -0.0068773 
мировой -0.0062232 0.0044485 0.01087 0.015607 0.014948 -0.0082948 -0.016133 -0.0071942 0.018905 -0.0096762 0.01234 0.019734 -0.013251 -0.0086964 0.012888 0.013067 0.018465 0.016706 0.010261 0.0031336 -0.013367 -0.016738 0.006878 0.0041869 0.01256 0.0066968 -0.014872 0.016434 -0.0039563 0.0028192 0.0024575 0.01885 0.012843 -0.0023869 0.019784 -0.0026617 -0.00014737 -0.00089105 0.00010036 0.015471 -0.018365 -0.0085471 -0.009587 -0.016485 -0.0039612 -0.011378 0.0084081 0.014549 -0.0073018 -0.0080143 
либо 0.013142 0.0072488 0.0078858 -0.0060105 -0.016886 -0.0057186 0.0082703 -0.011597 -0.0093101 0.016325 0.019597 0.0025285 -0.007409 0.012 -0.012509 0.0036344 0.0088758 0.0065734 0.019275 0.013303 -0.011648 -0.0050288 0.015263 -0.0004897 -0.0052724 -0.0084016 -0.00078536 -0.011685 -0.0023848 0.0074871 -0.0090836 -0.017999 0.011742 -0.0029955 -0.017548 -0.018113 0.012711 0.0087059 -0.013629 -0.016385 0.016442 -0.019763 0.0059455 0.0058003 0.014199 0.014739 0.0094917 0.012934 0.014795 -0.0028474 
Илон 0.0037581 0.019434 -0.016739 0.012749 -0.018966 -0.0060636 -0.015634 0.0063782 -0.0053985 -0.0083085 -0.017828 0.01864 -0.00047364 0.013234 0.0083364 -0.015592 -0.011412 0.0028859 0.003471 0.016512 -0.0019298 0.0080905 0.0082232 0.010956 -0.011999 -0.00029079 0.0028269 -0.0083871 -5.1002e-05 0.018699 -0.002563 0.012776 0.018503 -0.013817 0.010876 0.014531 -0.011141 -0.0069012 -0.0084327 0.013102 0.0039995 -0.0017059 0.008722 -0.013859 0.011615 -0.010551 -0.012874 -0.0064676 4.0059e-05 0.010757 
перед 0.018982 0.013941 0.0020224 -0.019221 -0.0063348 -0.019561 0.011473 -0.016654 -0.006087 -0.00014187 -2.2709e-05 -0.0021124 -0.016338 0.0012217 -0.011941 -0.0062355 -0.011045 -0.0028506 -0.0060358 -0.0014041 0.0012555 -0.0039544 -0.011426 -0.015803 0.0065851 -0.018601 -0.018856 0.0090488 -0.016544 0.0084497 -0.0014304 -0.00037629 0.0010557 0.019999 0.0050828 0.01098 -0.0093243 -0.0071157 0.016989 0.018797 0.013492 0.0010583 0.0042672 0.016757 -0.0017784 -0.0092017 -0.0089394 -0.010713 -0.015954 0.0080522 
2,7 9.4205e-05 -0.011636 -0.0074927 0.014715 -0.0021803 0.0072751 0.010608 -0.019267 -0.014407 -0.0016373 0.0061457 -0.0044872 -0.0055752 -0.014728 0.015683 -0.0081256 0.0080963 0.011705 0.01153 0.014501 0.017861 -0.017973 0.0017423 -0.0038606 -0.0093333 0.0092815 -0.0053137 -0.016859 -0.0055735 -0.0014022 -0.013914 0.01859 0.018382 -0.010114 -0.010102 -0.01921 1.0899e-05 -0.012481 0.00027882 0.017352 -0.0070107 -0.0021954 -0.0056663 -0.00045354 -0.0057839 0.012115 -0.014479 -0.017902 0.0049099 -0.0047246 
Трамп. 0.01282 -0.0030547 -0.0088748 0.0063279 0.0075229 -0.01481 0.0034413 -0.017077 -0.001777 -0.014071 -0.0016839 -0.0079875 0.010265 0.0020757 -0.015632 0.014687 0.01957 0.017185 0.014394 0.014203 -0.016576 -0.006901 0.012571 0.012683 -0.012542 -0.0057773 -0.017716 -0.011252 0.0094237 0.015642 0.0070957 -0.00049092 0.017763 -0.013153 -0.0031502 0.0044051 0.018845 -0.014985 -0.0031725 -0.01059 0.013065 0.011796 0.001124 -0.0025213 0.016628 -0.0070131 -0.010615 0.0021563 -0.0087004 -0.0072327 
года. 0.014203 0.00091495 0.018023 0.013524 -0.011299 0.0079602 -0.012193 0.00546 -0.012089 0.013197 -0.019481 -0.012297 0.0090353 -0.00072257 -0.0091314 0.0043362 0.011136 0.0039301 0.011916 -0.016379 -0.017092 0.012234 -0.014815 0.009498 0.0011258 0.015424 -0.0051572 0.0070746 -0.018421 -0.0047178 -0.018269 -0.0071389 0.0035209 -0.016839 -0.014893 -0.0071702 -0.0054323 -0.006068 -0.0020753 0.015975 -0.010197 -0.014243 0.015134 0.0079887 0.01184 0.010668 0.011215 -0.017972 0.0014725 0.013313 
же 0.013509 0.01691 -0.018924 0.0037175 -0.0053069 0.00162 -0.0011312 -0.01976 0.00068329 0.0013632 0.018582 0.01051 -0.019629 -0.0090753 0.017255 -0.00060903 -0.014392 -0.010307 -0.0011537 0.010245 -0.019027 -0.016748 0.011609 0.0085103 -0.0097767 -0.0081634 0.017413 -0.011762 0.016719 -0.019208 0.0090089 -0.0077665 0.0022607 0.014419 -0.0023767 0.010805 0.0010302 -0.0092535 0.0097118 -0.019621 -0.019394 0.0081486 -0.0028471 -0.0026232 0.014262 0.0015779 0.013171 -0.0072851 -0.018238 -0.011946 
При 0.017085 -0.0030289 -0.015672 0.011938 -0.0066628 -0.010336 -0.0060314 -0.0085444 0.015311 -0.018197 -0.0015005 -0.011446 0.015968 0.0044327 -0.0028279 -0.0081387 0.017505 0.0071617 -0.015053 0.0067255 -0.0021484 -0.006787 0.0032546 -0.016348 -0.011622 -0.00083276 0.0067953 0.0063323 0.014621 -0.013586 0.009293 0.015624 0.019089 -0.016833 -0.019116 -0.0087719 -0.011971 0.013459 -0.016164 -0.012096 0.016736 -0.018323 0.017752 -0.0014312 0.0032887 -0.013195 0.0068836 0.017058 -0.018418 -0.0013552 
года, -0.00018886 0.00074156 0.0011499 0.0019933 -0.0022622 -0.017058 -0.012072 -0.013308 -0.012185 0.00028211 -0.010148 -0.0046447 0.0073498 -0.0018542 -0.01285 -0.0076078 -0.00057872 -0.015168 0.0043928 -0.017059 -0.01518 -0.015251 0.01546 -0.012202 0.0053994 -0.0082078 -0.0058621 -0.012565 -0.016301 0.0062156 0.016604 0.012923 0.015816 -0.0077195 -0.0073011 -0.017172 -0.011208 0.0067264 -0.014933 0.017125 -0.0087874 0.017613 0.0098871 -0.0027164 -0.010599 0.012484 0.011998 0.012508 -0.0030355 -0.011751 
уже -0.01668 -0.017135 -0.019187 0.011016 -0.018731 0.014875 -0.0022713 0.010169 -0.018153 0.0076757 0.0042971 -0.013416 -0.019669 -0.017524 -0.0012261 -0.0084088 0.018624 0.0050787 0.014766 -0.016045 -0.01841 -0.012144 0.0018077 0.0031712 -0.0030241 -0.019739 0.00098921 0.011386 -0.011814 -0.0016172 0.013949 -0.0038333 0.015906 -0.0032331 -0.0012329 0.0026668 0.019967 -0.0015466 0.0010084 -0.013575 -0.0074989 0.017001 -0.010503 -0.0092142 -0.009894 0.0049944 0.011894 0.011601 -0.013867 -0.012796 
Скотт -0.015353 -0.016589 0.014854 0.011779 0.016184 0.013518 0.00065224 -0.0032285 -0.0039374 0.0053475 -0.0038733 0.013974 0.0039196 0.011905 -0.0094991 -0.014098 0.015862 -0.0017132 -0.01185 -0.010214 0.009975 0.01317 -0.0058972 -0.016517 -0.013985 0.017129 0.019915 0.0091793 -0.013469 0.010497 0.0087727 -0.017661 -0.0094433 0.018815 0.017619 -0.0054431 -0.019355 0.00045772 0.0054799 -0.01788 -0.018616 0.0042459 -0.0019318 -0.0049684 0.0065089 0.010794 0.00036428 -0.014027 -0.011195 0.0034196 
декабре -0.016515 -0.0052922 -0.014489 -0.017462 0.012405 -0.013084 0.010521 0.0092225 -0.01119 -0.011976 0.00053465 -0.013151 0.004082 0.0011869 -0.01249 -0.016981 0.0064593 -0.016131 0.0025986 0.013185 0.010195 0.011465 0.0059479 -0.0066126 0.017955 0.0027534 -0.016296 -0.017075 0.0020946 0.0152 -0.0018944 0.013782 -0.017308 0.0023314 -0.0015551 -0.0095957 -0.018567 -0.0032609 0.013035 0.018448 -0.0063479 -0.0058143 0.0010892 -0.0049844 -0.019967 -0.016806 -0.0044236 0.0044277 -0.014198 0.0048873 
всех 0.010537 -0.0030932 -0.0015664 -0.0066217 0.019736 -0.0075265 0.0022122 -0.00071903 0.0028587 0.012004 0.017815 0.0082824 -0.016717 -0.0015695 -0.0085075 -0.0076345 0.011714 -0.015111 -0.012484 -0.0058248 -0.014867 0.0076852 -0.0010709 0.0022004 -0.00316 0.013908 -0.011041 -0.009849 0.00077044 0.0016865 -0.010318 -0.0036759 -0.007247 -0.018709 -0.010403 -0.0065831 0.011351 -0.019708 0.004347 3.6316e-05 0.0017566 0.013565 0.019219 0.01765 0.00073635 0.0024843 0.00097125 -0.0061383 -0.00069142 -0.0042678 
свое 0.0047162 0.016377 0.017601 -0.015881 -0.016622 0.017611 0.0078971 0.018948 -0.0052838 -0.0024207 0.01327 -0.0072696 0.0058257 -0.018515 -0.012998 0.017288 -0.011696 0.011521 -0.0021189 0.013652 -0.0057548 -0.018236 0.018063 0.010111 0.016149 0.011043 -0.018106 0.0026346 -0.015093 0.0077042 -0.015109 -0.0026021 -0.016186 -0.0032741 0.0046255 0.018437 0.017296 -0.0098075 0.019082 0.018213 -0.0089982 0.0030876 0.0041853 0.01801 0.0061174 0.014006 -0.0056453 0.0034994 0.0068679 0.011313 
Франции 0.0076775 0.0089843 0.019563 0.014088 0.018441 -0.0092573 -0.0091439 0.012459 0.0011902 0.009539 0.0046708 -0.019858 0.00082416 -0.017906 0.00034688 -0.010684 -0.012286 0.012589 -0.0067665 -0.015676 0.0029859 -0.019208 -0.0094832 -0.00081087 -0.019666 -0.009298 -0.013523 -0.00055025 0.012347 0.012596 0.0045611 0.00097674 0.012382 0.016432 0.01338 0.0088776 0.010991 0.010638 0.015805 0.006533 0.0070746 0.017725 0.006074 -0.019204 -0.012274 -0.00081493 -0.010744 -0.0094932 0.0095451 -0.0057132 
четверг -0.012477 -0.002112 0.0074479 0.00067725 0.01584 0.0014502 -0.019134 0.012809 0.013975 -0.0044946 -0.00072037 0.0024722 0.011395 0.018904 -0.014705 -0.014303 -0.00013481 -0.0071069 0.00054323 -0.019348 -0.0149 -0.0016072 -0.0051084 0.016379 -0.018272 -0.0040989 -0.018744 0.00208 -0.016124 0.017635 0.0037446 0.0051851 0.018762 -0.0080503 -0.00073619 -0.0075313 0.0012383 -0.012018 -0.017265 0.019861 -0.011026 -0.0090845 0.016891 0.0029261 0.0030643 0.0001614 -0.010382 -0.0057297 -0.002395 -0.016784 
Прюитт -0.0016422 0.0024526 -0.01572 -0.013661 0.018242 -0.0092063 0.0058655 0.012627 0.010128 -0.012209 0.015746 0.002176 0.013879 0.0080982 0.015363 0.0076004 -0.0053041 -0.0042278 -0.016512 -0.0168 0.014257 0.01902 0.0031265 0.019873 0.0062679 -0.006598 -0.010438 -0.0022926 0.0057032 -0.017735 -0.0063447 0.014846 -0.016557 0.0080259 -0.011469 -0.0039739 -0.0065792 0.012038 -0.010792 0.0016215 0.010452 -0.012766 0.0095928 0.0060935 -0.015724 -0.019599 0.010878 -0.013199 0.011139 0.001846 
Америки -0.015729 0.013442 -0.00072012 -0.0062729 -0.019539 0.014014 -0.0015838 0.0072495 0.0067542 0.019491 -0.019892 -0.013155 0.0052648 -0.019657 0.018261 0.014817 0.019354 -0.015595 -0.0028021 0.012663 0.016366 -0.019154 -0.0011203 -0.0062909 -0.018396 -0.0068339 0.018221 -0.0057864 0.0020453 -0.00056885 0.018377 0.0054517 -0.012675 0.0032708 0.0054289 -0.019929 0.012477 0.014708 -0.0028464 -0.01094 -0.0081646 -0.018643 -0.00528 -0.011979 -0.014364 0.015789 -0.0046069 -0.011213 -0.013639 0.013633 
решением -0.018874 -0.0018668 0.0028312 0.013332 -0.013142 -0.014664 -0.0060291 0.0015148 -0.01236 0.0085825 -0.01413 -0.0073007 0.0076191 -0.017706 -0.0017465 0.0049504 0.0098134 -0.014381 -0.017206 -0.0035126 0.00050184 0.018543 0.011919 -0.0052239 0.0072493 0.005872 0.011766 -0.0077245 -0.0010456 -0.01685 0.00068333 0.009622 -0.0095715 -0.012527 0.0087584 0.0011972 0.0047828 -0.019274 -0.016596 0.012109 -0.019238 0.010576 -0.012457 0.015839 0.014962 0.014473 0.0006191 0.0031739 -0.0089468 0.01379 
Соглашение -0.017956 0.0052009 0.004291 0.019592 0.014528 0.0072045 -0.019473 0.012107 -0.0038064 0.0086897 -0.016707 -0.013609 0.019742 0.0039171 -0.018132 -0.019534 0.0063028 0.013565 -0.010557 0.0047097 -0.017644 -0.013119 0.018283 -0.01254 -0.0040675 0.0095711 0.0057115 -0.014484 -0.01267 0.018198 -0.00013499 -0.0082578 0.018017 -0.016084 0.010043 0.0046295 -0.0038303 -0.0031041 -0.0049253 -0.0097964 0.0085811 0.0060946 -0.012759 -0.0040359 0.0084641 -0.0016601 0.0088359 -3.08e-05 0.0014737 -0.013585 
Twitter. -0.012161 -0.00030865 -0.015939 0.010011 -0.014506 -0.00043403 0.0060155 0.014033 -0.014734 -0.0088726 -0.012749 -0.0082519 0.0096653 0.0027631 0.017586 0.0075196 0.0061138 -0.015582 0.0093925 -0.0035379 0.01431 0.0016689 -0.0081663 -0.012582 -0.0091809 0.019742 -0.0061579 -0.0072795 -0.014427 0.004582 -0.017988 0.012539 0.016822 0.013008 0.016872 -0.019739 0.014921 0.0052849 9.3337e-05 -0.010427 0.0098183 0.018412 0.0055684 -0.0064939 -0.0081521 -0.0013322 0.019373 -0.014972 -0.0022376 0.018347 
примет -0.016768 -0.018481 -0.016622 0.010641 0.012223 0.015628 -0.013996 0.015079 -0.0039667 0.0016988 -0.0012748 0.014992 -0.010543 -0.0058996 -0.0016837 0.003502 0.012027 0.012999 -0.0028041 -0.019133 -0.019245 -0.00089685 0.013681 0.012459 -0.016051 -0.018741 -0.0075883 0.016548 -0.0069645 0.0020126 -0.0062409 0.013336 -0.0067133 -0.00088586 -0.0058491 0.013837 0.0075363 -0.0026439 -0.002508 0.015321 0.0083469 0.0016508 -0.00083918 -0.007064 0.0090043 -0.012395 0.00642 -0.013943 0.0093039 0.019503 
ли 0.013458 0.018967 -0.0073881 0.014197 -0.0058757 -0.019099 -0.0049269 -0.017988 -0.0086704 -0.010741 -0.0072733 -0.0045174 0.0048605 -0.0085373 0.0075062 -0.013953 0.012886 0.0043582 -0.014441 -0.0086905 0.014736 -0.0053613 -0.0083106 0.010508 0.012083 -0.012071 0.0092682 -0.014306 0.0072845 0.012942 -0.016314 0.011794 -0.0086118 0.0050466 -0.00098415 -0.0085772 -0.019773 -0.014427 -0.0060822 0.0056758 0.0073935 -0.018733 0.012846 0.016908 0.019338 -0.0012856 -0.015426 -0.017364 0.012883 0.016817 
потепления. 0.015373 -0.0083867 0.017422 0.0089769 -0.010858 -0.010631 -0.017293 0.0099534 -0.0054393 -0.0085681 0.014829 0.0053275 -0.017466 -0.018107 0.013143 0.012247 -0.0060466 -0.010904 0.011844 -0.015783 0.014567 0.0081197 0.0025791 0.00049287 -0.0039681 -0.0061466 0.017937 -0.0047752 -0.017944 0.014047 -0.019607 0.001822 -0.019704 -0.019724 -0.018557 -0.018128 -0.013563 0.0046246 0.0017481 0.01066 0.00086274 -0.0011567 0.01106 -0.015258 -0.0093982 2.5351e-05 0.0073421 0.0052917 0.012907 -0.00020038 
страна -0.0093249 -0.0021992 -0.0035762 0.015915 -0.0018727 -0.010535 -0.0042109 -0.019491 -0.00886 -0.0056774 0.018958 -0.007111 0.0079199 0.0038836 -0.018081 0.011561 0.010567 -0.0076676 0.0085791 -0.002975 0.014748 0.016205 0.0081377 -0.0078726 -0.010349 -0.0047539 -0.018423 -0.012753 0.0099696 -0.016043 -0.014963 -0.014246 -0.014674 0.01428 0.0091246 -0.010086 -0.0093751 0.015947 0.016769 -0.006907 -0.011647 0.0063736 -0.019289 0.0057577 0.0093973 -0.012892 -0.00088604 0.0054617 -0.017474 -0.0034163 
климата, -0.00040396 0.0088876 0.010408 -0.006742 -0.0015642 -0.0074361 -0.014609 0.018859 -0.0063855 -0.0067757 -0.01549 0.0053608 0.0029553 -0.0036773 -0.016643 0.00061598 0.019453 -0.012156 -0.0081688 -0.0041182 0.01587 -0.016438 -0.015121 -0.0004403 0.016754 -0.0072038 -0.0080408 -0.013056 0.016489 0.017412 -0.010056 -0.00051172 0.0077165 -0.0059886 0.010212 -0.0064067 -0.008445 -0.0015014 -0.00078777 -0.016869 -0.0039471 -0.014052 0.0012167 -0.0046034 0.018965 0.0062819 0.018964 -0.00031036 0.01638 -0.012546 
Как 0.011525 0.0045159 -0.018221 -0.0061989 -0.0028965 0.0089785 0.0090969 0.0057974 -0.0092386 -0.0063389 -0.0025714 -0.005746 0.012463 0.0079679 0.014177 0.005474 0.0035434 -0.013324 0.0014157 0.013197 0.0007046 0.01339 -0.0013285 -0.00033383 -0.0025887 0.01698 0.00068009 0.013796 -0.0095673 -0.002561 0.0071305 -0.010999 0.0077418 0.0079933 -0.012195 0.019722 0.0041332 0.0060956 -0.013319 0.0060382 0.011585 -0.0056647 0.015481 -0.019155 0.01501 0.016791 0.016621 -0.013044 0.0011853 0.010711 
Италии 0.0061165 0.0032053 -0.0078534 0.0094916 -0.0011406 0.017126 -0.018141 0.00082497 -0.01863 0.014548 -0.014928 -0.013686 -0.0083851 0.0055994 0.0079483 -0.0043378 0.00262 0.0032643 -0.019324 0.014537 -0.012651 -0.0067225 -0.014478 -0.0060201 0.0014217 -0.011544 0.019566 -0.015732 -0.018899 -0.0024324 0.00514 -0.0037515 -0.0078929 -0.0016226 0.0084124 0.013235 0.00085622 -0.0099795 0.018271 -0.0078857 0.0037536 0.015724 -0.0061255 -0.015547 -0.00073746 0.010107 -0.007196 0.016659 0.013938 0.0034807 
Агентства 0.017793 -0.015508 0.0016613 0.019622 0.010303 -0.0042741 -0.00010879 -0.0038767 0.0095003 0.0010872 0.0065659 -0.0038677 -0.018706 -0.011965 0.004037 -0.018881 -0.013126 0.018417 0.0056271 0.010137 0.0040755 0.019033 0.0017076 -0.0077126 -0.019872 -0.0031747 -0.0082115 -0.011936 0.014645 0.010629 0.012098 0.010841 -0.010403 -0.007386 -0.0076399 0.015928 -0.018733 0.011281 -0.0037479 -0.0098995 -0.0021904 0.016008 0.0067673 -0.017077 -0.01155 -0.002875 0.0069108 -0.013262 -0.016063 -0.0016751 
Напомним, -0.002826 -0.012571 -0.0057069 0.0063673 -0.0034301 -3.4612e-05 0.018287 -0.0017768 -0.019442 0.0038728 -0.004573 0.0087958 0.0033631 -0.015912 0.010951 -0.01576 0.002611 -0.0043896 -0.016781 -0.017373 -0.012695 -0.01083 -0.0041493 0.0082054 -0.014658 -0.0053167 -0.00058498 -0.015665 -0.01183 -0.0061211 -0.012643 -0.011298 -0.011653 -0.010055 0.019958 -0.0079726 -0.017417 0.0027631 0.0044894 2.2017e-06 -0.001582 0.013261 -0.014285 -0.0014451 -0.018122 0.017507 -0.0011054 0.0031655 0.01012 0.0011581 
Оно -0.0025717 -0.00058285 -0.00088211 0.0073052 -0.0097885 -0.00058234 -0.0032882 0.0035161 -0.0052295 0.019556 -0.017767 0.0092584 -0.012052 -0.012443 -0.0075231 0.003631 0.011641 -0.0013242 0.010076 -0.0095254 0.017914 -0.0079922 0.015712 -0.0022635 -0.010666 0.0030413 -0.011985 -0.0043026 0.01411 0.018333 -0.0051304 0.019922 -0.017685 0.019971 0.011918 -0.010742 -0.0062528 0.010035 -0.012749 -0.006645 0.015418 -0.00046907 0.015917 -0.014983 0.0028397 -0.0050666 -0.0057335 -0.0088549 -0.0019657 -0.0057955 
заявлении -0.0094235 0.019966 0.01855 -0.0015934 0.01964 -6.2938e-05 0.014825 0.0012199 0.0044508 -0.019689 -0.012248 -0.0048097 0.012259 -0.018506 -0.012567 0.0059899 0.012541 0.019972 0.008712 -0.015624 0.0084629 0.0063858 -0.0078089 -0.0057924 0.01591 0.002114 0.014932 -0.0077208 0.018255 -0.00035404 0.0036251 -0.0067088 0.0047531 0.0080464 0.0028125 0.011862 0.0048143 0.019142 -0.004199 -0.012287 -0.0042497 -0.014371 0.017097 -0.0021936 0.0042774 0.0002054 -0.018407 0.013394 0.012891 0.0093227 
тем, 0.016655 -0.0019028 0.014373 -0.0017739 0.0071754 -0.014049 -0.0033759 0.010706 0.014369 0.0044805 0.010108 0.016488 -0.012492 -0.013771 -0.01146 -0.0090663 0.018235 0.0010092 -0.0082226 -0.011017 -0.0070514 0.016251 -0.012364 -0.0014321 -0.012446 0.014017 0.010211 0.0015196 0.019742 -0.017625 0.012236 -0.00058916 -0.017022 0.017663 0.00032246 -0.013161 -0.0069032 0.0087737 0.010487 0.0054498 -0.010389 0.010426 -0.0083519 0.0096891 0.017432 -0.0036149 0.016258 0.011161 -0.0032095 -0.016773 
под 0.003966 0.016407 0.0078521 -0.0013722 -0.019001 -0.011375 -0.010449 0.0082211 0.0055933 0.0068056 -0.005844 -0.015041 0.0039783 -0.0020215 -0.00015803 -0.0036691 -0.017097 -0.0040785 0.013296 0.016947 0.012389 0.00061654 -0.012923 -0.014254 -0.014684 0.0053626 0.015819 -0.0038282 0.0017835 0.0085185 0.012953 0.010878 0.0018832 -0.0037095 0.011488 -0.016974 -0.019563 -0.001211 0.0045301 -0.015024 -0.0052686 -0.0016687 -0.019593 -0.012721 0.011243 0.017193 0.00038524 -0.014864 0.0121 0.0053232 
Америку -0.0051153 0.01087 -0.0067424 -0.016734 0.015113 0.015205 -0.015453 0.016924 -0.0073816 0.0033828 -0.016177 0.019778 0.0052239 0.017782 -0.0012044 0.01273 0.0073879 -0.019039 -0.0029794 0.010717 0.012775 0.012803 0.01604 0.016077 -0.011321 0.018821 0.016525 -0.014212 0.011796 0.0023241 -0.0068726 -0.01811 0.011885 0.008437 -0.0027586 0.0093129 -0.014141 -0.014235 -0.0094543 0.0050154 -0.017604 -0.0099793 0.011243 -0.0037537 0.0038679 -0.0028975 -0.012896 -0.011837 -0.010199 -0.014293 
стран, -0.018438 0.019673 -0.0050589 -0.013663 -0.013537 -0.01488 -0.0034965 -0.0030571 -0.011216 -0.01841 -0.0038775 0.014864 -0.0012202 0.0011595 -0.0013209 -0.013716 -0.005736 -0.011859 -0.0146 -0.0099188 -0.011976 -0.010307 0.015083 0.018623 -0.01991 -0.01563 -0.012222 -0.01508 -0.0067199 0.0094163 0.012365 -0.0092578 -0.014086 -0.0044936 0.010481 -0.017959 -0.0009554 0.01003 -0.014812 0.01928 0.015341 -0.010824 0.01854 -0.00039979 -0.0029862 -0.0084607 -0.0056195 0.017944 0.011446 -0.018612 
Прюитт. -0.0069033 -0.00066889 -0.00943 -0.0028333 0.016893 0.012813 0.011301 0.019015 0.013156 -0.0026382 -0.0085065 -0.019883 0.0059327 -0.0093428 -0.018091 -9.36e-06 -0.015595 -0.0043365 -0.019199 0.019721 -0.009709 -0.0098317 0.017883 0.0018626 -0.0064311 -0.00047944 -0.0094863 -0.00083185 0.0061947 0.014623 0.014335 0.0014879 0.0069721 0.012793 -0.01717 0.0032044 0.007421 0.0068267 -0.016455 0.0015544 -4.5034e-05 0.0048101 -0.018497 -0.00028281 0.0056571 -0.004625 -0.014107 0.013295 -0.0090197 -0.015933 
условиях, 0.008802 0.0064656 0.016791 -0.0035971 0.015726 0.016969 0.0010442 0.0059978 -0.0035287 0.012756 0.019802 0.0094273 0.013131 0.0029149 -0.0035944 -0.019495 -0.0073694 -0.0052196 0.018887 -0.01732 0.017815 -0.014452 0.0043679 0.0074078 0.0080367 0.00098428 -0.0079819 -0.0038602 -0.010377 -0.0051465 -0.019729 0.0034323 0.0011018 0.017352 -0.01243 0.016158 0.011996 -0.0012664 -0.019657 0.016446 0.0029273 -0.0089663 -0.011712 0.0077204 0.019829 -0.01021 0.019467 -0.0049341 -0.0018998 0.018357 
лидер 0.0040712 0.010067 -0.017465 -0.015111 -0.0076629 -0.014232 0.012879 0.011217 0.0032655 0.0060464 -0.0059863 0.010482 -0.0088017 0.018681 0.013682 0.0181 0.019757 -0.011118 -0.0013704 -0.0068415 0.015481 0.0077224 -0.013528 0.0045464 -0.012724 0.0034122 -0.011044 0.011646 0.015241 0.0021139 -0.017319 -0.0056017 0.0021727 -0.0072743 -0.0095889 0.0056029 -0.011029 -0.0016962 0.0027316 0.0038693 0.0066371 0.0148 -0.00030482 0.0081978 0.013705 -0.0016148 -0.013468 0.018348 0.0010892 0.014061 
